%YAML:1.0
---
opencv_ml_svm:
   format: 3
   svmType: C_SVC
   kernel:
      type: RBF
      gamma: 1.
   C: 1.
   term_criteria: { epsilon:1., iterations:10 }
   var_count: 1920
   class_count: 2
   class_labels: !!opencv-matrix
      rows: 2
      cols: 1
      dt: i
      data: [ 0, 1 ]
   sv_total: 20
   support_vectors:
      - [ 1., 0., 0., 0., 0., 0., 0., 0., 139., 14., 0., 0., 0., 0., 0.,
          0., 183., 38., 0., 0., 0., 0., 0., 0., 26., 3., 0., 0., 0., 0.,
          0., 0., 1., 0., 0., 0., 0., 0., 69., 8., 121., 7., 0., 0., 0.,
          0., 80., 41., 183., 33., 0., 0., 0., 0., 10., 50., 44., 5., 0.,
          0., 0., 0., 0., 1., 0., 0., 0., 0., 0., 0., 183., 39., 14., 0.,
          0., 0., 0., 0., 183., 102., 115., 2., 0., 0., 0., 0., 107.,
          167., 22., 1., 0., 0., 0., 0., 0., 9., 0., 0., 0., 0., 0., 0.,
          64., 6., 0., 0., 0., 0., 1., 1., 56., 7., 2., 0., 0., 0., 1.,
          1., 18., 10., 3., 0., 0., 0., 0., 0., 0., 2., 0., 6., 64., 0.,
          0., 0., 0., 0., 0., 6., 61., 1., 0., 0., 0., 0., 0., 10., 23.,
          0., 0., 0., 0., 0., 0., 2., 2., 0., 0., 0., 0., 0., 0., 39.,
          184., 0., 0., 0., 0., 0., 15., 98., 184., 0., 0., 0., 0., 0.,
          116., 166., 108., 0., 0., 0., 0., 1., 17., 10., 2., 0., 0., 0.,
          1., 2., 0., 7., 70., 0., 0., 0., 0., 0., 121., 41., 80., 0.,
          0., 0., 0., 7., 184., 49., 10., 0., 0., 0., 0., 29., 41., 1.,
          0., 0., 0., 0., 1., 5., 0., 0., 1., 0., 0., 0., 0., 0., 139.,
          0., 0., 0., 0., 0., 0., 13., 184., 0., 0., 0., 0., 0., 0., 37.,
          25., 0., 0., 0., 0., 0., 0., 4., 0., 0., 0., 0., 0., 0., 0.,
          0., 146., 18., 0., 0., 0., 0., 0., 0., 178., 48., 0., 0., 0.,
          0., 0., 0., 23., 3., 0., 0., 0., 0., 0., 0., 0., 0., 0., 0.,
          0., 0., 61., 8., 124., 9., 0., 0., 0., 0., 72., 44., 178., 39.,
          0., 0., 0., 0., 9., 50., 40., 8., 1., 0., 0., 0., 0., 1., 0.,
          0., 0., 0., 0., 0., 178., 50., 15., 0., 0., 0., 0., 0., 178.,
          115., 111., 1., 0., 0., 0., 0., 104., 172., 17., 1., 0., 0.,
          0., 0., 1., 11., 0., 0., 0., 0., 0., 0., 71., 9., 0., 0., 0.,
          0., 0., 0., 63., 9., 0., 0., 0., 0., 0., 0., 21., 11., 0., 0.,
          0., 0., 0., 1., 2., 2., 0., 7., 67., 0., 0., 0., 0., 0., 0.,
          6., 62., 2., 0., 0., 0., 0., 1., 11., 19., 1., 0., 0., 0., 0.,
          2., 2., 0., 0., 0., 0., 0., 1., 0., 41., 182., 0., 0., 0., 0.,
          0., 14., 106., 182., 0., 0., 0., 0., 0., 114., 172., 101., 0.,
          0., 0., 0., 1., 21., 9., 0., 0., 0., 0., 0., 1., 0., 8., 67.,
          0., 0., 0., 0., 0., 120., 45., 76., 0., 0., 0., 0., 8., 182.,
          52., 9., 0., 0., 0., 0., 32., 44., 1., 0., 0., 0., 0., 0., 5.,
          1., 0., 0., 0., 0., 0., 0., 0., 141., 0., 0., 0., 0., 0., 0.,
          14., 182., 0., 0., 0., 0., 0., 0., 39., 26., 0., 0., 0., 0.,
          0., 0., 3., 1., 1., 1., 6., 15., 11., 2., 0., 128., 13., 1.,
          6., 60., 25., 1., 2., 180., 44., 0., 1., 3., 1., 0., 1., 8.,
          1., 0., 0., 0., 0., 0., 0., 3., 8., 1., 13., 20., 8., 23., 5.,
          120., 15., 2., 47., 69., 15., 49., 26., 180., 44., 1., 3., 3.,
          0., 10., 56., 20., 1., 0., 0., 0., 0., 0., 1., 2., 3., 0., 2.,
          4., 13., 180., 35., 24., 0., 0., 6., 11., 24., 180., 89., 173.,
          1., 0., 0., 0., 0., 62., 180., 10., 0., 0., 0., 0., 0., 0., 6.,
          0., 0., 0., 0., 0., 0., 17., 2., 0., 0., 0., 0., 0., 0., 12.,
          2., 1., 0., 0., 0., 0., 0., 1., 3., 0., 0., 0., 0., 0., 0., 0.,
          0., 0., 4., 18., 0., 0., 0., 0., 0., 0., 3., 12., 0., 0., 0.,
          0., 0., 3., 4., 1., 0., 0., 0., 0., 0., 0., 0., 0., 0., 0., 0.,
          0., 0., 6., 50., 178., 11., 3., 1., 0., 2., 33., 89., 178.,
          30., 10., 4., 0., 1., 178., 178., 33., 0., 0., 0., 0., 3., 23.,
          6., 0., 0., 0., 0., 0., 0., 17., 8., 15., 4., 12., 8., 0., 13.,
          124., 23., 30., 15., 55., 37., 3., 26., 178., 44., 5., 0., 1.,
          2., 1., 65., 36., 2., 0., 0., 0., 0., 0., 3., 15., 9., 6., 7.,
          8., 2., 1., 3., 140., 4., 3., 24., 36., 6., 1., 19., 178., 1.,
          0., 0., 1., 0., 0., 59., 15., 0., 0., 0., 0., 0., 0., 2., 7.,
          3., 0., 1., 9., 7., 1., 5., 110., 12., 0., 5., 57., 29., 1.,
          2., 187., 53., 0., 1., 4., 2., 0., 1., 27., 3., 0., 0., 0., 0.,
          0., 0., 10., 15., 26., 14., 6., 5., 17., 3., 102., 17., 13.,
          60., 61., 11., 34., 19., 187., 59., 1., 6., 5., 1., 7., 42.,
          53., 4., 0., 0., 0., 0., 0., 1., 3., 3., 5., 5., 1., 5., 187.,
          25., 25., 1., 3., 10., 8., 14., 187., 72., 187., 3., 0., 0.,
          1., 1., 44., 164., 31., 0., 0., 0., 0., 0., 0., 5., 0., 0., 0.,
          0., 0., 0., 13., 2., 0., 0., 0., 0., 0., 0., 8., 1., 2., 0.,
          0., 0., 0., 0., 1., 2., 0., 0., 0., 0., 0., 0., 0., 0., 2., 0.,
          1., 50., 60., 0., 0., 2., 147., 19., 0., 15., 25., 0., 0., 0.,
          176., 48., 0., 0., 0., 0., 0., 0., 23., 3., 0., 0., 0., 0., 0.,
          0., 1., 1., 8., 70., 23., 2., 51., 5., 129., 11., 0., 6., 7.,
          1., 73., 40., 176., 39., 0., 0., 0., 0., 9., 51., 43., 4., 0.,
          0., 0., 0., 0., 1., 0., 0., 1., 4., 1., 1., 176., 41., 17., 0.,
          0., 0., 0., 0., 176., 112., 126., 1., 0., 0., 0., 0., 74.,
          173., 19., 0., 0., 0., 0., 0., 0., 7., 0., 0., 0., 0., 0., 0.,
          35., 4., 0., 0., 0., 0., 0., 0., 24., 4., 1., 0., 0., 0., 0.,
          0., 4., 5., 0., 0., 0., 0., 0., 0., 0., 0., 0., 9., 73., 0.,
          0., 0., 0., 0., 0., 10., 63., 0., 0., 0., 0., 0., 0., 11., 19.,
          0., 0., 0., 0., 0., 0., 1., 0., 0., 0., 0., 0., 0., 0., 52.,
          175., 0., 0., 0., 0., 0., 15., 121., 175., 0., 0., 0., 0., 0.,
          88., 175., 111., 0., 0., 0., 0., 1., 4., 7., 1., 0., 0., 0.,
          0., 0., 0., 7., 61., 0., 0., 45., 27., 0., 120., 43., 79., 0.,
          0., 11., 4., 12., 175., 56., 11., 0., 0., 0., 0., 32., 12., 1.,
          0., 0., 0., 0., 0., 1., 0., 3., 4., 2., 9., 72., 24., 0., 126.,
          0., 0., 1., 18., 51., 5., 22., 175., 0., 0., 0., 0., 0., 0.,
          42., 4., 0., 0., 0., 0., 0., 0., 0., 0., 5., 21., 0., 0., 0.,
          0., 0., 0., 3., 14., 0., 0., 0., 0., 0., 5., 4., 1., 0., 0.,
          0., 0., 0., 0., 0., 0., 0., 0., 0., 0., 0., 3., 49., 170., 6.,
          3., 3., 7., 8., 34., 84., 179., 32., 16., 6., 1., 1., 179.,
          179., 36., 1., 1., 0., 0., 4., 20., 8., 0., 0., 0., 0., 0., 0.,
          12., 6., 9., 4., 18., 16., 15., 17., 114., 19., 23., 14., 77.,
          44., 5., 25., 179., 45., 5., 1., 3., 3., 2., 76., 26., 2., 0.,
          0., 0., 0., 0., 2., 13., 7., 1., 11., 15., 3., 2., 2., 133.,
          2., 2., 26., 51., 8., 2., 22., 179., 1., 0., 1., 2., 1., 1.,
          68., 8., 0., 0., 0., 0., 0., 0., 1., 29., 2., 0., 0., 0., 0.,
          0., 1., 155., 2., 0., 0., 2., 1., 1., 37., 45., 0., 0., 26.,
          116., 6., 2., 23., 0., 0., 0., 51., 94., 0., 0., 0., 44., 0.,
          0., 0., 0., 0., 0., 3., 155., 3., 0., 0., 10., 3., 1., 46.,
          59., 1., 0., 8., 155., 21., 2., 17., 0., 0., 0., 9., 132., 24.,
          0., 0., 44., 3., 0., 0., 0., 0., 0., 1., 155., 38., 1., 3., 9.,
          1., 0., 3., 61., 12., 2., 11., 155., 23., 0., 1., 0., 0., 0.,
          1., 119., 36., 1., 0., 25., 3., 0., 0., 0., 0., 0., 0., 155.,
          41., 0., 0., 3., 1., 0., 0., 59., 14., 0., 1., 128., 24., 0.,
          0., 0., 0., 1., 11., 116., 17., 0., 0., 12., 0., 1., 0., 0.,
          0., 0., 6., 154., 0., 0., 1., 4., 0., 0., 144., 57., 0., 0.,
          48., 121., 3., 3., 85., 33., 2., 1., 20., 31., 0., 0., 11.,
          52., 1., 0., 0., 0., 0., 0., 8., 154., 5., 0., 2., 24., 2., 1.,
          93., 57., 2., 0., 27., 154., 6., 1., 27., 38., 11., 0., 4.,
          26., 1., 0., 12., 55., 7., 0., 0., 0., 0., 0., 1., 154., 69.,
          1., 6., 23., 0., 0., 5., 57., 19., 1., 29., 154., 1., 0., 2.,
          46., 6., 0., 2., 24., 0., 0., 9., 23., 7., 0., 0., 0., 0., 0.,
          0., 154., 63., 1., 3., 10., 0., 0., 0., 57., 20., 1., 12.,
          154., 3., 0., 0., 43., 6., 0., 0., 18., 1., 0., 1., 21., 0.,
          0., 0., 0., 0., 0., 9., 142., 1., 0., 1., 1., 0., 0., 99., 64.,
          1., 1., 31., 88., 1., 1., 29., 0., 0., 0., 39., 123., 1., 1.,
          0., 60., 1., 0., 0., 0., 0., 0., 6., 142., 10., 0., 3., 7., 2.,
          0., 40., 45., 2., 1., 56., 133., 4., 0., 7., 0., 0., 3., 69.,
          126., 0., 0., 0., 62., 1., 0., 0., 0., 0., 0., 11., 142., 24.,
          2., 7., 7., 0., 0., 27., 33., 10., 3., 45., 142., 1., 0., 1.,
          0., 0., 0., 41., 142., 1., 0., 0., 66., 0., 0., 0., 0., 0., 0.,
          27., 142., 4., 1., 2., 5., 0., 0., 51., 11., 2., 1., 6., 125.,
          9., 0., 2., 0., 0., 0., 2., 130., 17., 0., 0., 58., 3., 0., 7.,
          70., 0., 0., 0., 199., 27., 0., 1., 6., 1., 0., 2., 68., 8.,
          0., 7., 53., 8., 1., 5., 4., 1., 0., 3., 52., 4., 1., 4., 70.,
          2., 0., 6., 85., 3., 0., 1., 199., 8., 0., 1., 4., 4., 0., 28.,
          95., 3., 1., 5., 61., 31., 1., 19., 3., 2., 1., 5., 71., 6.,
          1., 3., 73., 0., 0., 4., 87., 9., 1., 8., 199., 8., 1., 4., 5.,
          1., 0., 36., 89., 10., 5., 40., 70., 2., 0., 4., 0., 2., 5.,
          39., 47., 0., 0., 0., 77., 0., 0., 16., 53., 0., 0., 12., 199.,
          9., 3., 7., 3., 0., 0., 45., 38., 6., 6., 43., 33., 0., 0., 2.,
          0., 0., 1., 37., 40., 0., 0., 0., 26., 0., 0., 0., 0., 0., 0.,
          3., 147., 7., 0., 3., 4., 0., 0., 23., 68., 6., 1., 27., 139.,
          2., 0., 7., 0., 0., 0., 5., 134., 11., 0., 0., 37., 1., 0., 0.,
          0., 0., 0., 1., 147., 8., 0., 2., 5., 1., 0., 7., 72., 6., 0.,
          18., 133., 24., 0., 3., 0., 0., 0., 6., 147., 19., 1., 0., 35.,
          3., 0., 0., 0., 0., 0., 1., 147., 43., 0., 2., 3., 1., 0., 4.,
          67., 14., 0., 14., 119., 17., 0., 2., 0., 0., 0., 13., 147.,
          8., 0., 0., 12., 4., 0., 0., 0., 0., 0., 0., 147., 85., 0., 0.,
          0., 0., 0., 0., 69., 45., 3., 7., 77., 14., 0., 0., 0., 0., 0.,
          3., 139., 26., 0., 0. ]
      - [ 1., 0., 0., 0., 0., 0., 0., 0., 139., 14., 0., 0., 0., 0., 0.,
          0., 183., 38., 0., 0., 0., 0., 0., 0., 26., 3., 0., 0., 0., 0.,
          0., 0., 1., 0., 0., 0., 0., 0., 69., 8., 121., 7., 0., 0., 0.,
          0., 80., 41., 183., 33., 0., 0., 0., 0., 10., 50., 44., 5., 0.,
          0., 0., 0., 0., 1., 0., 0., 0., 0., 0., 0., 183., 39., 14., 0.,
          0., 0., 0., 0., 183., 102., 115., 2., 0., 0., 0., 0., 107.,
          167., 22., 1., 0., 0., 0., 0., 0., 9., 0., 0., 0., 0., 0., 0.,
          64., 6., 0., 0., 0., 0., 1., 1., 56., 7., 2., 0., 0., 0., 1.,
          1., 18., 10., 3., 0., 0., 0., 0., 0., 0., 2., 0., 6., 64., 0.,
          0., 0., 0., 0., 0., 6., 61., 1., 0., 0., 0., 0., 0., 10., 23.,
          0., 0., 0., 0., 0., 0., 2., 2., 0., 0., 0., 0., 0., 0., 39.,
          184., 0., 0., 0., 0., 0., 15., 98., 184., 0., 0., 0., 0., 0.,
          116., 166., 108., 0., 0., 0., 0., 1., 17., 10., 2., 0., 0., 0.,
          1., 2., 0., 7., 70., 0., 0., 0., 0., 0., 121., 41., 80., 0.,
          0., 0., 0., 7., 184., 49., 10., 0., 0., 0., 0., 29., 41., 1.,
          0., 0., 0., 0., 1., 5., 0., 0., 1., 0., 0., 0., 0., 0., 139.,
          0., 0., 0., 0., 0., 0., 13., 184., 0., 0., 0., 0., 0., 0., 37.,
          25., 0., 0., 0., 0., 0., 0., 4., 0., 0., 0., 0., 0., 0., 0.,
          0., 146., 18., 0., 0., 0., 0., 0., 0., 178., 48., 0., 0., 0.,
          0., 0., 0., 23., 3., 0., 0., 0., 0., 0., 0., 0., 0., 0., 0.,
          0., 0., 61., 8., 124., 9., 0., 0., 0., 0., 72., 44., 178., 39.,
          0., 0., 0., 0., 9., 50., 40., 8., 1., 0., 0., 0., 0., 1., 0.,
          0., 0., 0., 0., 0., 178., 50., 15., 0., 0., 0., 0., 0., 178.,
          115., 111., 1., 0., 0., 0., 0., 104., 172., 17., 1., 0., 0.,
          0., 0., 1., 11., 0., 0., 0., 0., 0., 0., 71., 9., 0., 0., 0.,
          0., 0., 0., 63., 9., 0., 0., 0., 0., 0., 0., 21., 11., 0., 0.,
          0., 0., 0., 1., 2., 2., 0., 7., 67., 0., 0., 0., 0., 0., 0.,
          6., 62., 2., 0., 0., 0., 0., 1., 11., 19., 1., 0., 0., 0., 0.,
          2., 2., 0., 0., 0., 0., 0., 1., 0., 41., 182., 0., 0., 0., 0.,
          0., 14., 106., 182., 0., 0., 0., 0., 0., 114., 172., 101., 0.,
          0., 0., 0., 1., 21., 9., 0., 0., 0., 0., 0., 1., 0., 8., 67.,
          0., 0., 0., 0., 0., 120., 45., 76., 0., 0., 0., 0., 8., 182.,
          52., 9., 0., 0., 0., 0., 32., 44., 1., 0., 0., 0., 0., 0., 5.,
          1., 0., 0., 0., 0., 0., 0., 0., 141., 0., 0., 0., 0., 0., 0.,
          14., 182., 0., 0., 0., 0., 0., 0., 39., 26., 0., 0., 0., 0.,
          0., 0., 3., 0., 3., 20., 0., 0., 0., 0., 0., 0., 3., 13., 0.,
          0., 0., 0., 0., 3., 4., 1., 0., 0., 0., 0., 0., 0., 0., 0., 0.,
          0., 0., 0., 0., 4., 46., 177., 5., 2., 3., 2., 7., 33., 97.,
          177., 14., 6., 7., 1., 1., 177., 173., 31., 0., 0., 0., 0., 3.,
          23., 6., 0., 0., 0., 0., 0., 0., 12., 7., 14., 5., 7., 13.,
          10., 28., 127., 23., 31., 16., 41., 45., 5., 20., 177., 42.,
          5., 0., 1., 2., 1., 59., 34., 2., 0., 0., 0., 0., 0., 3., 10.,
          14., 7., 24., 7., 1., 1., 2., 152., 5., 5., 51., 25., 2., 1.,
          17., 177., 2., 0., 1., 0., 0., 0., 56., 14., 0., 0., 0., 0.,
          0., 0., 2., 0., 0., 0., 48., 30., 0., 0., 0., 151., 19., 0.,
          4., 5., 0., 0., 0., 178., 48., 0., 0., 0., 0., 0., 0., 24., 3.,
          0., 0., 0., 0., 0., 0., 0., 0., 1., 25., 4., 1., 59., 6., 131.,
          11., 0., 1., 1., 0., 75., 41., 178., 39., 0., 0., 0., 0., 9.,
          51., 44., 4., 0., 0., 0., 0., 0., 1., 0., 0., 0., 0., 0., 0.,
          178., 44., 17., 0., 0., 0., 0., 0., 178., 114., 128., 1., 0.,
          0., 0., 0., 75., 176., 20., 0., 0., 0., 0., 0., 0., 7., 0., 0.,
          0., 0., 0., 0., 35., 4., 0., 0., 0., 0., 0., 0., 25., 5., 1.,
          0., 0., 0., 0., 0., 4., 5., 0., 0., 0., 0., 0., 0., 0., 0., 0.,
          9., 73., 0., 0., 0., 0., 0., 0., 10., 64., 0., 0., 0., 0., 0.,
          0., 11., 19., 0., 0., 0., 0., 0., 0., 1., 0., 0., 0., 0., 0.,
          0., 0., 53., 176., 0., 0., 0., 0., 0., 15., 122., 176., 0., 0.,
          0., 0., 0., 89., 176., 111., 0., 0., 0., 0., 1., 4., 7., 1.,
          0., 0., 0., 0., 0., 0., 8., 62., 0., 0., 14., 6., 0., 122.,
          43., 79., 0., 0., 1., 1., 12., 176., 57., 11., 0., 0., 0., 0.,
          32., 12., 1., 0., 0., 0., 0., 0., 1., 0., 0., 0., 0., 5., 70.,
          7., 0., 141., 0., 0., 0., 4., 14., 0., 20., 176., 0., 0., 0.,
          0., 0., 0., 41., 4., 0., 0., 0., 0., 0., 0., 0., 14., 1., 2.,
          2., 8., 21., 9., 23., 136., 19., 2., 5., 43., 52., 3., 4.,
          175., 59., 0., 0., 1., 1., 0., 1., 6., 1., 0., 0., 0., 0., 0.,
          0., 14., 24., 13., 20., 11., 5., 15., 10., 112., 20., 3., 54.,
          66., 15., 40., 25., 175., 59., 1., 3., 3., 0., 8., 59., 20.,
          1., 0., 0., 0., 0., 0., 3., 4., 9., 3., 3., 3., 7., 175., 53.,
          25., 1., 0., 8., 10., 19., 175., 97., 175., 2., 0., 0., 0., 0.,
          50., 175., 12., 0., 0., 0., 0., 0., 0., 9., 0., 0., 0., 0., 0.,
          0., 24., 4., 0., 0., 0., 0., 0., 0., 15., 3., 2., 0., 0., 0.,
          0., 0., 1., 4., 0., 0., 0., 0., 0., 0., 0., 0., 23., 8., 14.,
          5., 4., 7., 6., 24., 108., 21., 9., 17., 38., 36., 6., 3.,
          190., 70., 1., 1., 3., 2., 0., 1., 24., 3., 0., 0., 0., 0., 0.,
          0., 22., 49., 10., 16., 9., 3., 12., 7., 101., 21., 7., 72.,
          50., 9., 29., 19., 190., 68., 2., 6., 3., 0., 6., 41., 51., 4.,
          0., 0., 0., 0., 0., 1., 6., 13., 3., 3., 3., 14., 169., 38.,
          29., 1., 1., 11., 9., 15., 190., 73., 190., 4., 0., 1., 0., 0.,
          33., 155., 33., 0., 0., 0., 0., 0., 0., 6., 0., 0., 0., 0., 0.,
          1., 11., 2., 0., 0., 0., 0., 0., 0., 7., 1., 2., 0., 0., 0.,
          0., 0., 0., 2., 0., 0., 0., 0., 0., 0., 0., 0., 82., 3., 0.,
          0., 0., 0., 1., 74., 70., 12., 5., 6., 5., 1., 3., 78., 72.,
          39., 4., 2., 2., 0., 0., 2., 14., 2., 0., 10., 130., 1., 0.,
          1., 130., 1., 0., 0., 6., 3., 4., 111., 38., 15., 9., 33.,
          106., 21., 10., 50., 130., 53., 9., 12., 12., 2., 2., 10., 32.,
          3., 0., 35., 130., 1., 0., 1., 130., 24., 0., 0., 6., 4., 1.,
          20., 61., 9., 0., 3., 72., 118., 27., 17., 111., 9., 3., 7.,
          12., 28., 23., 49., 16., 4., 3., 74., 130., 0., 0., 1., 130.,
          22., 0., 0., 0., 0., 0., 8., 81., 15., 3., 6., 27., 35., 7.,
          3., 8., 6., 1., 10., 34., 16., 7., 7., 1., 2., 1., 55., 130.,
          0., 0., 0., 35., 10., 0., 9., 40., 1., 0., 3., 139., 6., 0.,
          0., 0., 0., 1., 87., 96., 30., 6., 7., 4., 1., 1., 51., 55.,
          35., 2., 1., 14., 1., 0., 1., 79., 3., 0., 1., 58., 3., 0.,
          10., 141., 4., 0., 0., 15., 6., 6., 141., 53., 29., 14., 35.,
          111., 28., 10., 47., 141., 56., 7., 7., 20., 2., 1., 6., 85.,
          2., 0., 1., 57., 5., 1., 17., 141., 60., 0., 0., 11., 10., 2.,
          20., 73., 18., 0., 2., 70., 140., 39., 22., 94., 14., 3., 10.,
          18., 19., 20., 33., 57., 3., 0., 2., 34., 1., 1., 14., 141.,
          53., 0., 0., 0., 0., 0., 9., 103., 32., 3., 5., 29., 35., 8.,
          3., 5., 5., 1., 7., 41., 13., 6., 5., 53., 1., 0., 0., 0., 0.,
          0., 5., 154., 1., 0., 2., 4., 0., 0., 32., 66., 1., 0., 23.,
          154., 3., 0., 6., 0., 0., 0., 4., 68., 11., 0., 0., 86., 1.,
          0., 0., 0., 0., 0., 9., 154., 2., 0., 7., 13., 0., 0., 35.,
          52., 3., 3., 83., 154., 2., 0., 3., 0., 2., 6., 23., 49., 7.,
          0., 0., 97., 4., 0., 0., 0., 0., 0., 4., 154., 22., 0., 1.,
          14., 6., 2., 8., 47., 3., 1., 15., 139., 107., 5., 2., 1., 3.,
          3., 8., 41., 32., 3., 1., 50., 14., 0., 0., 0., 0., 0., 2.,
          154., 57., 0., 0., 0., 2., 2., 1., 77., 14., 0., 0., 90., 85.,
          4., 1., 0., 0., 0., 1., 94., 40., 0., 0., 71., 0., 0., 0., 0.,
          0., 0., 5., 164., 0., 0., 2., 30., 1., 0., 21., 29., 0., 0.,
          14., 164., 4., 0., 6., 19., 3., 0., 2., 12., 1., 0., 15., 96.,
          0., 0., 0., 0., 0., 0., 8., 164., 1., 0., 1., 40., 5., 0., 20.,
          36., 0., 0., 4., 164., 22., 1., 6., 16., 3., 0., 0., 12., 2.,
          3., 14., 90., 1., 0., 0., 0., 0., 0., 19., 164., 11., 0., 5.,
          44., 2., 0., 11., 36., 5., 1., 24., 164., 9., 0., 1., 27., 11.,
          0., 2., 11., 0., 1., 5., 59., 15., 1., 0., 0., 0., 0., 4.,
          164., 23., 0., 0., 25., 11., 0., 5., 35., 2., 0., 1., 164.,
          62., 0., 3., 27., 6., 0., 0., 12., 6., 0., 0., 27., 0., 0., 0.,
          0., 0., 0., 3., 166., 1., 0., 3., 6., 0., 0., 48., 66., 1., 0.,
          44., 116., 0., 0., 12., 4., 0., 0., 31., 81., 0., 0., 2., 51.,
          0., 0., 0., 0., 0., 0., 2., 166., 2., 0., 1., 19., 3., 0., 37.,
          58., 1., 0., 13., 166., 17., 1., 10., 7., 1., 0., 8., 88., 31.,
          0., 1., 51., 3., 0., 0., 0., 0., 0., 0., 166., 24., 0., 1.,
          20., 2., 0., 3., 69., 7., 0., 5., 166., 21., 1., 2., 8., 3.,
          0., 3., 56., 62., 1., 1., 27., 4., 0., 0., 0., 0., 0., 0.,
          166., 49., 0., 0., 8., 1., 0., 0., 68., 15., 1., 3., 147., 18.,
          0., 0., 7., 7., 3., 24., 53., 7., 0., 0., 40., 0., 0., 0., 0.,
          0., 1., 7., 171., 0., 0., 1., 17., 4., 1., 50., 41., 1., 0.,
          15., 161., 19., 1., 12., 9., 2., 1., 4., 16., 2., 0., 4., 68.,
          1., 0., 0., 1., 1., 0., 2., 171., 3., 0., 0., 28., 6., 0., 25.,
          51., 1., 0., 1., 171., 33., 1., 8., 4., 2., 0., 0., 19., 6.,
          1., 3., 62., 5., 0., 0., 0., 0., 0., 0., 171., 30., 0., 2.,
          28., 2., 0., 3., 57., 6., 0., 6., 171., 25., 1., 1., 1., 2.,
          0., 0., 26., 15., 1., 1., 40., 5., 0., 0., 0., 0., 0., 0.,
          171., 25., 0., 0., 14., 5., 0., 2., 61., 3., 0., 0., 153., 45.,
          1., 2., 0., 1., 0., 1., 38., 18., 1., 0. ]
      - [ 0., 0., 0., 0., 0., 0., 0., 0., 146., 18., 0., 0., 0., 0., 0.,
          0., 178., 48., 0., 0., 0., 0., 0., 0., 23., 3., 0., 0., 0., 0.,
          0., 0., 0., 0., 0., 0., 0., 0., 61., 8., 124., 9., 0., 0., 0.,
          0., 72., 44., 178., 39., 0., 0., 0., 0., 9., 50., 40., 8., 1.,
          0., 0., 0., 0., 1., 0., 0., 0., 0., 0., 0., 178., 50., 15., 0.,
          0., 0., 0., 0., 178., 115., 111., 1., 0., 0., 0., 0., 104.,
          172., 17., 1., 0., 0., 0., 0., 1., 11., 0., 0., 0., 0., 0., 0.,
          71., 9., 0., 0., 0., 0., 0., 0., 63., 9., 0., 0., 0., 0., 0.,
          0., 21., 11., 0., 0., 0., 0., 0., 1., 2., 2., 0., 7., 67., 0.,
          0., 0., 0., 0., 0., 6., 62., 2., 0., 0., 0., 0., 1., 11., 19.,
          1., 0., 0., 0., 0., 2., 2., 0., 0., 0., 0., 0., 1., 0., 41.,
          182., 0., 0., 0., 0., 0., 14., 106., 182., 0., 0., 0., 0., 0.,
          114., 172., 101., 0., 0., 0., 0., 1., 21., 9., 0., 0., 0., 0.,
          0., 1., 0., 8., 67., 0., 0., 0., 0., 0., 120., 45., 76., 0.,
          0., 0., 0., 8., 182., 52., 9., 0., 0., 0., 0., 32., 44., 1.,
          0., 0., 0., 0., 0., 5., 1., 0., 0., 0., 0., 0., 0., 0., 141.,
          0., 0., 0., 0., 0., 0., 14., 182., 0., 0., 0., 0., 0., 0., 39.,
          26., 0., 0., 0., 0., 0., 0., 3., 1., 0., 0., 0., 0., 0., 0.,
          0., 139., 14., 0., 0., 0., 0., 0., 0., 183., 38., 0., 0., 0.,
          0., 0., 0., 26., 3., 0., 0., 0., 0., 0., 0., 1., 0., 0., 0.,
          0., 0., 69., 8., 121., 7., 0., 0., 0., 0., 80., 41., 183., 33.,
          0., 0., 0., 0., 10., 50., 44., 5., 0., 0., 0., 0., 0., 1., 0.,
          0., 0., 0., 0., 0., 183., 39., 14., 0., 0., 0., 0., 0., 183.,
          102., 115., 2., 0., 0., 0., 0., 107., 167., 22., 1., 0., 0.,
          0., 0., 0., 9., 0., 0., 0., 0., 0., 0., 64., 6., 0., 0., 0.,
          0., 1., 1., 56., 7., 2., 0., 0., 0., 1., 1., 18., 10., 3., 0.,
          0., 0., 0., 0., 0., 2., 0., 6., 64., 0., 0., 0., 0., 0., 0.,
          6., 61., 1., 0., 0., 0., 0., 0., 10., 23., 0., 0., 0., 0., 0.,
          0., 2., 2., 0., 0., 0., 0., 0., 0., 39., 184., 0., 0., 0., 0.,
          0., 15., 98., 184., 0., 0., 0., 0., 0., 116., 166., 108., 0.,
          0., 0., 0., 1., 17., 10., 2., 0., 0., 0., 1., 2., 0., 7., 70.,
          0., 0., 0., 0., 0., 121., 41., 80., 0., 0., 0., 0., 7., 184.,
          49., 10., 0., 0., 0., 0., 29., 41., 1., 0., 0., 0., 0., 1., 5.,
          0., 0., 1., 0., 0., 0., 0., 0., 139., 0., 0., 0., 0., 0., 0.,
          13., 184., 0., 0., 0., 0., 0., 0., 37., 25., 0., 0., 0., 0.,
          0., 0., 4., 0., 0., 0., 41., 21., 0., 0., 0., 152., 20., 0.,
          3., 4., 0., 0., 0., 179., 49., 0., 0., 0., 0., 0., 0., 24., 3.,
          0., 0., 0., 0., 0., 0., 0., 0., 1., 18., 2., 0., 59., 7., 131.,
          11., 0., 1., 0., 0., 75., 42., 179., 39., 0., 0., 0., 0., 9.,
          52., 44., 4., 0., 0., 0., 0., 0., 1., 0., 0., 0., 0., 0., 0.,
          179., 45., 17., 0., 0., 0., 0., 0., 179., 115., 128., 1., 0.,
          0., 0., 0., 75., 177., 20., 0., 0., 0., 0., 0., 0., 7., 0., 0.,
          0., 0., 0., 0., 36., 4., 0., 0., 0., 0., 0., 0., 25., 5., 1.,
          0., 0., 0., 0., 0., 4., 5., 0., 0., 0., 0., 0., 0., 0., 0., 0.,
          10., 74., 0., 0., 0., 0., 0., 0., 10., 64., 0., 0., 0., 0., 0.,
          0., 11., 19., 0., 0., 0., 0., 0., 0., 1., 0., 0., 0., 0., 0.,
          0., 0., 53., 176., 0., 0., 0., 0., 0., 15., 122., 176., 0., 0.,
          0., 0., 0., 89., 176., 112., 0., 0., 0., 0., 1., 4., 7., 1.,
          0., 0., 0., 0., 0., 0., 8., 62., 0., 0., 11., 4., 0., 123.,
          44., 79., 0., 0., 1., 0., 12., 176., 57., 11., 0., 0., 0., 0.,
          33., 12., 1., 0., 0., 0., 0., 0., 1., 0., 0., 0., 0., 6., 55.,
          4., 0., 143., 0., 0., 0., 3., 8., 0., 20., 176., 0., 0., 0.,
          0., 0., 0., 41., 4., 0., 0., 0., 0., 0., 0., 0., 0., 4., 21.,
          0., 0., 0., 0., 0., 0., 3., 12., 0., 0., 0., 0., 0., 3., 3.,
          1., 0., 0., 0., 0., 0., 0., 0., 0., 0., 0., 0., 0., 0., 3.,
          46., 176., 4., 1., 2., 1., 5., 33., 103., 176., 9., 3., 5., 0.,
          1., 176., 170., 30., 0., 0., 0., 0., 3., 22., 6., 0., 0., 0.,
          0., 0., 0., 10., 8., 18., 4., 4., 9., 6., 20., 135., 25., 36.,
          13., 26., 33., 5., 21., 176., 42., 4., 0., 0., 1., 1., 59.,
          33., 1., 0., 0., 0., 0., 0., 3., 8., 10., 5., 19., 4., 1., 2.,
          2., 161., 5., 3., 38., 14., 2., 1., 20., 176., 1., 0., 0., 0.,
          0., 0., 59., 13., 0., 0., 0., 0., 0., 0., 2., 13., 5., 11., 5.,
          4., 7., 4., 12., 157., 27., 7., 13., 22., 23., 4., 2., 180.,
          62., 0., 0., 0., 0., 0., 1., 11., 1., 0., 0., 0., 0., 0., 0.,
          11., 27., 7., 16., 6., 3., 14., 6., 154., 26., 4., 48., 28.,
          6., 29., 24., 180., 60., 1., 1., 0., 0., 3., 34., 27., 2., 0.,
          0., 0., 0., 0., 1., 3., 7., 2., 3., 2., 7., 180., 33., 48., 1.,
          1., 6., 5., 9., 180., 95., 180., 3., 0., 0., 0., 0., 20., 137.,
          20., 0., 0., 0., 0., 0., 0., 3., 0., 0., 0., 0., 0., 0., 13.,
          2., 0., 0., 0., 0., 0., 0., 7., 2., 3., 0., 0., 0., 0., 0., 0.,
          2., 0., 0., 0., 0., 0., 0., 0., 0., 0., 0., 1., 13., 27., 1.,
          0., 0., 151., 20., 1., 17., 45., 1., 0., 0., 176., 45., 0., 0.,
          0., 0., 0., 0., 11., 1., 0., 0., 0., 0., 0., 0., 0., 0., 4.,
          60., 15., 5., 40., 2., 148., 13., 0., 33., 18., 3., 66., 43.,
          176., 36., 0., 0., 0., 0., 7., 52., 24., 2., 0., 0., 0., 0.,
          0., 1., 0., 0., 1., 6., 3., 5., 176., 28., 22., 0., 0., 1., 1.,
          2., 176., 121., 137., 1., 0., 0., 0., 0., 58., 176., 11., 0.,
          0., 0., 0., 0., 0., 5., 0., 0., 0., 0., 0., 0., 28., 3., 0.,
          0., 0., 0., 0., 0., 18., 3., 1., 0., 0., 0., 0., 0., 2., 4.,
          0., 0., 0., 0., 0., 0., 0., 0., 36., 7., 0., 0., 20., 9., 0.,
          0., 151., 38., 0., 0., 16., 5., 0., 1., 19., 3., 0., 0., 104.,
          34., 0., 0., 0., 0., 0., 0., 120., 34., 0., 0., 34., 1., 0.,
          1., 30., 9., 0., 1., 151., 13., 0., 0., 18., 6., 1., 21., 40.,
          2., 0., 4., 151., 24., 2., 7., 0., 0., 0., 3., 151., 19., 0.,
          0., 34., 1., 0., 3., 38., 4., 0., 0., 151., 7., 0., 2., 20.,
          2., 0., 5., 51., 2., 0., 3., 151., 22., 0., 2., 0., 0., 0., 1.,
          147., 18., 0., 0., 27., 1., 0., 4., 35., 1., 0., 0., 151., 7.,
          0., 2., 14., 0., 0., 2., 41., 2., 0., 16., 138., 1., 0., 0.,
          0., 0., 0., 5., 117., 2., 0., 0., 75., 0., 0., 0., 1., 0., 0.,
          8., 164., 0., 0., 4., 19., 0., 0., 35., 36., 1., 0., 39., 164.,
          0., 0., 4., 14., 5., 0., 8., 33., 0., 0., 2., 113., 0., 0., 0.,
          1., 0., 0., 8., 164., 2., 0., 7., 37., 0., 0., 27., 31., 1.,
          0., 33., 164., 2., 0., 3., 19., 13., 0., 3., 37., 2., 0., 1.,
          119., 3., 0., 0., 0., 0., 0., 8., 164., 24., 4., 26., 28., 1.,
          0., 10., 13., 6., 2., 55., 164., 17., 0., 0., 6., 4., 0., 0.,
          25., 14., 5., 5., 82., 13., 0., 0., 0., 0., 0., 0., 164., 25.,
          1., 3., 16., 16., 2., 9., 11., 1., 1., 5., 108., 57., 2., 4.,
          4., 0., 0., 0., 23., 11., 2., 4., 29., 9., 0., 1., 23., 3., 0.,
          0., 143., 60., 0., 1., 14., 1., 0., 0., 24., 9., 0., 1., 143.,
          22., 0., 0., 0., 0., 0., 0., 134., 34., 0., 0., 22., 4., 0.,
          3., 32., 2., 0., 1., 143., 35., 0., 1., 12., 2., 0., 12., 56.,
          6., 0., 0., 143., 23., 0., 4., 0., 0., 0., 0., 143., 38., 0.,
          0., 27., 0., 0., 8., 27., 1., 0., 1., 143., 1., 0., 1., 11.,
          1., 0., 13., 63., 0., 0., 0., 143., 16., 0., 4., 0., 0., 0.,
          0., 143., 17., 0., 0., 23., 0., 0., 7., 12., 4., 1., 4., 143.,
          0., 0., 1., 7., 1., 0., 17., 46., 0., 0., 9., 119., 2., 0., 3.,
          0., 0., 0., 6., 143., 2., 0., 0., 23., 15., 2., 4., 18., 3.,
          0., 0., 143., 53., 1., 1., 46., 18., 0., 0., 8., 2., 0., 0.,
          160., 67., 0., 0., 0., 0., 0., 0., 37., 12., 0., 0., 19., 5.,
          2., 2., 24., 5., 0., 1., 160., 31., 0., 0., 38., 13., 0., 2.,
          34., 2., 0., 0., 160., 71., 0., 2., 0., 0., 0., 0., 80., 17.,
          0., 0., 13., 2., 0., 4., 23., 7., 3., 2., 160., 11., 0., 2.,
          34., 6., 1., 14., 51., 1., 0., 0., 160., 29., 0., 4., 0., 0.,
          0., 0., 107., 6., 0., 0., 13., 0., 0., 2., 31., 33., 16., 5.,
          160., 0., 0., 1., 32., 7., 0., 41., 35., 0., 0., 7., 160., 13.,
          0., 8., 0., 0., 0., 3., 91., 2., 0., 0., 55., 0., 0., 0., 1.,
          0., 0., 8., 161., 2., 0., 6., 12., 0., 0., 39., 54., 3., 0.,
          75., 161., 0., 0., 6., 40., 25., 9., 13., 27., 0., 0., 6., 91.,
          1., 0., 0., 0., 0., 0., 8., 161., 4., 0., 8., 36., 0., 0., 24.,
          43., 3., 1., 46., 161., 1., 0., 4., 22., 9., 3., 4., 18., 0.,
          0., 7., 95., 9., 0., 0., 0., 0., 0., 2., 161., 29., 1., 5.,
          42., 0., 0., 4., 36., 6., 0., 14., 161., 5., 0., 1., 23., 2.,
          1., 1., 15., 2., 1., 4., 64., 8., 0., 0., 0., 0., 0., 0., 161.,
          31., 0., 0., 23., 2., 0., 0., 31., 6., 0., 0., 161., 30., 1.,
          2., 19., 2., 0., 0., 12., 6., 3., 6., 0., 0., 0., 2., 27., 6.,
          0., 0., 109., 13., 0., 1., 35., 6., 0., 0., 154., 30., 0., 1.,
          40., 4., 0., 1., 6., 1., 0., 2., 154., 15., 0., 0., 0., 0., 0.,
          14., 26., 1., 0., 0., 97., 22., 0., 5., 60., 1., 0., 2., 154.,
          74., 0., 3., 43., 2., 0., 9., 13., 4., 0., 4., 154., 14., 0.,
          1., 2., 0., 0., 9., 19., 2., 0., 1., 105., 3., 0., 6., 65., 1.,
          0., 19., 154., 9., 0., 2., 40., 3., 0., 56., 14., 0., 0., 8.,
          154., 11., 0., 3., 0., 0., 2., 12., 18., 2., 0., 0., 115., 0.,
          1., 11., 35., 1., 0., 14., 154., 0., 0., 2., 37., 2., 0., 33.,
          6., 0., 0., 5., 131., 7., 0., 1. ]
      - [ 1., 0., 0., 0., 0., 0., 0., 0., 139., 14., 0., 0., 0., 0., 0.,
          0., 183., 38., 0., 0., 0., 0., 0., 0., 26., 3., 0., 0., 0., 0.,
          0., 0., 1., 0., 0., 0., 0., 0., 69., 8., 121., 7., 0., 0., 0.,
          0., 80., 41., 183., 33., 0., 0., 0., 0., 10., 50., 44., 5., 0.,
          0., 0., 0., 0., 1., 0., 0., 0., 0., 0., 0., 183., 39., 14., 0.,
          0., 0., 0., 0., 183., 102., 115., 2., 0., 0., 0., 0., 107.,
          167., 22., 1., 0., 0., 0., 0., 0., 9., 0., 0., 0., 0., 0., 0.,
          64., 6., 0., 0., 0., 0., 1., 1., 56., 7., 2., 0., 0., 0., 1.,
          1., 18., 10., 3., 0., 0., 0., 0., 0., 0., 2., 0., 6., 64., 0.,
          0., 0., 0., 0., 0., 6., 61., 1., 0., 0., 0., 0., 0., 10., 23.,
          0., 0., 0., 0., 0., 0., 2., 2., 0., 0., 0., 0., 0., 0., 39.,
          184., 0., 0., 0., 0., 0., 15., 98., 184., 0., 0., 0., 0., 0.,
          116., 166., 108., 0., 0., 0., 0., 1., 17., 10., 2., 0., 0., 0.,
          1., 2., 0., 7., 70., 0., 0., 0., 0., 0., 121., 41., 80., 0.,
          0., 0., 0., 7., 184., 49., 10., 0., 0., 0., 0., 29., 41., 1.,
          0., 0., 0., 0., 1., 5., 0., 0., 1., 0., 0., 0., 0., 0., 139.,
          0., 0., 0., 0., 0., 0., 13., 184., 0., 0., 0., 0., 0., 0., 37.,
          25., 0., 0., 0., 0., 0., 0., 4., 0., 0., 0., 0., 0., 0., 0.,
          0., 146., 18., 0., 0., 0., 0., 0., 0., 178., 48., 0., 0., 0.,
          0., 0., 0., 23., 3., 0., 0., 0., 0., 0., 0., 0., 0., 0., 0.,
          0., 0., 61., 8., 124., 9., 0., 0., 0., 0., 72., 44., 178., 39.,
          0., 0., 0., 0., 9., 50., 40., 8., 1., 0., 0., 0., 0., 1., 0.,
          0., 0., 0., 0., 0., 178., 50., 15., 0., 0., 0., 0., 0., 178.,
          115., 111., 1., 0., 0., 0., 0., 104., 172., 17., 1., 0., 0.,
          0., 0., 1., 11., 0., 0., 0., 0., 0., 0., 71., 9., 0., 0., 0.,
          0., 0., 0., 63., 9., 0., 0., 0., 0., 0., 0., 21., 11., 0., 0.,
          0., 0., 0., 1., 2., 2., 0., 7., 67., 0., 0., 0., 0., 0., 0.,
          6., 62., 2., 0., 0., 0., 0., 1., 11., 19., 1., 0., 0., 0., 0.,
          2., 2., 0., 0., 0., 0., 0., 1., 0., 41., 182., 0., 0., 0., 0.,
          0., 14., 106., 182., 0., 0., 0., 0., 0., 114., 172., 101., 0.,
          0., 0., 0., 1., 21., 9., 0., 0., 0., 0., 0., 1., 0., 8., 67.,
          0., 0., 0., 0., 0., 120., 45., 76., 0., 0., 0., 0., 8., 182.,
          52., 9., 0., 0., 0., 0., 32., 44., 1., 0., 0., 0., 0., 0., 5.,
          1., 0., 0., 0., 0., 0., 0., 0., 141., 0., 0., 0., 0., 0., 0.,
          14., 182., 0., 0., 0., 0., 0., 0., 39., 26., 0., 0., 0., 0.,
          0., 0., 3., 0., 3., 21., 0., 0., 0., 0., 0., 0., 3., 12., 0.,
          0., 0., 0., 0., 3., 3., 1., 0., 0., 0., 0., 0., 0., 0., 0., 0.,
          0., 0., 0., 0., 3., 45., 176., 4., 1., 2., 1., 5., 34., 105.,
          176., 8., 3., 5., 0., 1., 176., 169., 30., 0., 0., 0., 0., 3.,
          21., 6., 0., 0., 0., 0., 0., 0., 12., 7., 19., 4., 3., 9., 5.,
          19., 136., 26., 36., 12., 23., 34., 5., 21., 176., 42., 4., 0.,
          0., 1., 1., 58., 32., 1., 0., 0., 0., 0., 0., 3., 10., 9., 5.,
          19., 3., 1., 2., 2., 162., 6., 4., 39., 12., 2., 1., 20., 176.,
          1., 0., 0., 0., 0., 0., 58., 13., 0., 0., 0., 0., 0., 0., 2.,
          0., 0., 0., 42., 15., 0., 0., 0., 152., 20., 0., 3., 3., 0.,
          0., 0., 179., 49., 0., 0., 0., 0., 0., 0., 24., 3., 0., 0., 0.,
          0., 0., 0., 0., 0., 0., 14., 1., 0., 60., 7., 131., 11., 0.,
          0., 0., 0., 75., 42., 179., 39., 0., 0., 0., 0., 9., 51., 44.,
          4., 0., 0., 0., 0., 0., 1., 0., 0., 0., 0., 0., 0., 179., 45.,
          17., 0., 0., 0., 0., 0., 179., 115., 128., 1., 0., 0., 0., 0.,
          75., 177., 20., 0., 0., 0., 0., 0., 0., 7., 0., 0., 0., 0., 0.,
          0., 36., 4., 0., 0., 0., 0., 0., 0., 25., 5., 1., 0., 0., 0.,
          0., 0., 4., 6., 0., 0., 0., 0., 0., 0., 0., 0., 0., 10., 74.,
          0., 0., 0., 0., 0., 0., 10., 64., 0., 0., 0., 0., 0., 0., 11.,
          19., 0., 0., 0., 0., 0., 0., 1., 0., 0., 0., 0., 0., 0., 0.,
          53., 176., 0., 0., 0., 0., 0., 15., 123., 176., 0., 0., 0., 0.,
          0., 89., 176., 112., 0., 0., 0., 0., 1., 4., 7., 1., 0., 0.,
          0., 0., 0., 0., 8., 62., 0., 0., 10., 2., 0., 123., 44., 79.,
          0., 0., 1., 0., 11., 176., 57., 11., 0., 0., 0., 0., 33., 12.,
          1., 0., 0., 0., 0., 0., 1., 0., 0., 0., 0., 7., 50., 2., 0.,
          144., 0., 0., 0., 2., 6., 0., 20., 176., 0., 0., 0., 0., 0.,
          0., 41., 4., 0., 0., 0., 0., 0., 0., 1., 0., 1., 0., 13., 26.,
          2., 1., 1., 152., 20., 1., 16., 43., 2., 0., 0., 175., 45., 0.,
          0., 0., 0., 0., 0., 11., 1., 0., 0., 0., 0., 0., 0., 0., 0.,
          4., 60., 14., 5., 41., 2., 148., 14., 1., 31., 16., 2., 66.,
          43., 175., 36., 0., 0., 0., 0., 7., 52., 24., 2., 0., 0., 0.,
          0., 0., 1., 0., 0., 1., 6., 3., 5., 175., 30., 22., 0., 0., 1.,
          1., 1., 175., 123., 137., 1., 0., 0., 0., 0., 58., 175., 12.,
          0., 0., 0., 0., 0., 0., 6., 0., 0., 0., 0., 0., 0., 28., 3.,
          0., 0., 0., 0., 0., 0., 18., 4., 1., 0., 0., 0., 0., 0., 2.,
          4., 0., 0., 0., 0., 0., 0., 0., 0., 15., 4., 14., 5., 3., 7.,
          4., 11., 161., 31., 8., 13., 19., 23., 4., 3., 179., 66., 0.,
          0., 0., 0., 0., 1., 9., 1., 0., 0., 0., 0., 0., 0., 13., 27.,
          7., 17., 6., 2., 14., 6., 157., 29., 5., 50., 26., 6., 30.,
          24., 179., 65., 1., 1., 0., 0., 3., 33., 25., 2., 0., 0., 0.,
          0., 0., 1., 3., 8., 2., 3., 2., 7., 179., 34., 48., 1., 1., 6.,
          5., 8., 179., 97., 179., 4., 0., 0., 0., 0., 19., 133., 18.,
          0., 0., 0., 0., 0., 0., 3., 0., 0., 0., 0., 0., 1., 14., 2.,
          0., 0., 0., 0., 0., 0., 7., 2., 2., 0., 0., 0., 0., 0., 0., 2.,
          0., 0., 0., 0., 0., 0., 0., 0., 24., 1., 0., 0., 18., 8., 0.,
          1., 147., 6., 0., 1., 12., 1., 0., 4., 46., 2., 0., 7., 147.,
          5., 0., 1., 0., 0., 0., 0., 146., 18., 0., 0., 31., 0., 0., 0.,
          26., 19., 0., 2., 147., 2., 0., 1., 17., 3., 0., 21., 49., 1.,
          0., 8., 147., 8., 0., 6., 0., 0., 0., 3., 147., 5., 0., 0.,
          31., 2., 0., 14., 26., 7., 0., 1., 147., 23., 1., 7., 17., 1.,
          0., 3., 41., 8., 1., 40., 147., 1., 0., 1., 0., 0., 0., 16.,
          147., 0., 0., 0., 23., 2., 1., 19., 15., 0., 0., 0., 147., 19.,
          1., 5., 9., 0., 0., 0., 29., 7., 1., 25., 118., 0., 0., 0., 0.,
          0., 0., 16., 121., 0., 0., 0., 48., 2., 0., 0., 0., 0., 0., 3.,
          163., 4., 0., 2., 23., 3., 0., 17., 36., 5., 3., 13., 157.,
          10., 0., 4., 8., 6., 6., 8., 13., 0., 0., 0., 60., 4., 0., 0.,
          0., 0., 0., 0., 163., 16., 0., 1., 21., 9., 1., 7., 55., 4.,
          2., 8., 163., 68., 2., 5., 21., 11., 5., 2., 19., 11., 3., 3.,
          44., 6., 0., 0., 0., 0., 0., 1., 163., 44., 0., 0., 11., 5.,
          0., 2., 89., 8., 0., 0., 163., 88., 4., 2., 6., 1., 0., 1.,
          29., 37., 20., 4., 18., 6., 0., 0., 0., 0., 0., 1., 163., 77.,
          0., 0., 3., 1., 0., 0., 96., 32., 0., 0., 123., 40., 0., 0.,
          0., 0., 0., 4., 57., 24., 2., 0., 40., 0., 0., 0., 0., 0., 0.,
          6., 167., 0., 0., 2., 12., 0., 0., 52., 48., 0., 1., 45., 153.,
          5., 0., 12., 8., 9., 4., 21., 24., 3., 1., 5., 69., 1., 0., 0.,
          0., 0., 0., 4., 167., 3., 0., 0., 21., 7., 0., 41., 50., 1.,
          0., 4., 167., 55., 2., 12., 9., 4., 1., 2., 28., 24., 11., 25.,
          66., 6., 0., 0., 0., 0., 0., 0., 167., 39., 0., 1., 20., 2.,
          0., 4., 59., 9., 0., 13., 167., 20., 0., 2., 5., 16., 5., 10.,
          44., 7., 1., 2., 35., 6., 0., 0., 0., 0., 0., 0., 167., 56.,
          0., 0., 7., 1., 0., 0., 63., 13., 0., 1., 145., 47., 0., 0.,
          2., 3., 0., 1., 34., 34., 5., 1., 59., 1., 0., 0., 0., 1., 0.,
          4., 170., 0., 0., 1., 23., 2., 0., 36., 33., 8., 1., 18., 113.,
          6., 0., 7., 3., 7., 2., 13., 19., 2., 0., 0., 86., 1., 0., 0.,
          0., 1., 0., 6., 170., 3., 0., 0., 33., 10., 0., 32., 41., 4.,
          1., 5., 170., 32., 0., 7., 9., 6., 3., 12., 22., 1., 0., 0.,
          84., 7., 0., 0., 0., 0., 0., 1., 170., 28., 0., 2., 29., 5.,
          1., 4., 46., 8., 5., 15., 170., 33., 1., 2., 12., 14., 13., 8.,
          22., 4., 0., 0., 49., 8., 0., 0., 0., 0., 0., 0., 170., 38.,
          0., 0., 9., 7., 1., 4., 63., 5., 0., 0., 157., 91., 2., 3.,
          11., 4., 1., 0., 27., 28., 11., 4., 29., 0., 0., 0., 0., 0.,
          0., 4., 165., 0., 0., 1., 5., 0., 0., 44., 87., 0., 0., 30.,
          165., 0., 0., 14., 16., 4., 1., 8., 43., 0., 1., 5., 52., 1.,
          0., 1., 0., 0., 0., 4., 165., 3., 0., 3., 13., 0., 0., 35.,
          83., 2., 0., 25., 165., 2., 0., 6., 11., 11., 2., 3., 47., 2.,
          2., 4., 52., 5., 0., 0., 0., 0., 0., 1., 165., 43., 1., 2.,
          12., 2., 0., 4., 68., 10., 2., 13., 165., 17., 1., 1., 6., 3.,
          0., 1., 37., 4., 2., 8., 27., 3., 0., 0., 0., 0., 0., 2., 165.,
          50., 0., 0., 5., 2., 0., 1., 78., 15., 0., 0., 137., 44., 1.,
          1., 3., 3., 1., 1., 31., 18., 6., 1., 41., 10., 0., 0., 39.,
          46., 0., 1., 81., 16., 1., 1., 28., 58., 9., 9., 8., 55., 11.,
          2., 20., 67., 9., 4., 15., 23., 9., 2., 5., 4., 3., 8., 27.,
          3., 0., 0., 53., 105., 8., 5., 122., 23., 1., 2., 13., 75.,
          34., 62., 24., 8., 2., 10., 76., 122., 44., 25., 26., 14., 6.,
          4., 8., 14., 14., 38., 4., 2., 2., 33., 81., 62., 6., 2., 122.,
          122., 18., 27., 39., 17., 4., 13., 37., 63., 20., 73., 122.,
          74., 4., 5., 18., 65., 32., 24., 34., 31., 3., 5., 0., 0., 0.,
          8., 122., 93., 0., 0., 94., 65., 2., 5., 64., 21., 0., 1.,
          111., 68., 4., 5., 47., 103., 6., 5., 18., 7., 2., 3., 51.,
          103., 7., 5. ]
      - [ 0., 0., 0., 0., 0., 0., 0., 0., 146., 18., 0., 0., 0., 0., 0.,
          0., 178., 48., 0., 0., 0., 0., 0., 0., 23., 3., 0., 0., 0., 0.,
          0., 0., 0., 0., 0., 0., 0., 0., 61., 8., 124., 9., 0., 0., 0.,
          0., 72., 44., 178., 39., 0., 0., 0., 0., 9., 50., 40., 8., 1.,
          0., 0., 0., 0., 1., 0., 0., 0., 0., 0., 0., 178., 50., 15., 0.,
          0., 0., 0., 0., 178., 115., 111., 1., 0., 0., 0., 0., 104.,
          172., 17., 1., 0., 0., 0., 0., 1., 11., 0., 0., 0., 0., 0., 0.,
          71., 9., 0., 0., 0., 0., 0., 0., 63., 9., 0., 0., 0., 0., 0.,
          0., 21., 11., 0., 0., 0., 0., 0., 1., 2., 2., 0., 7., 67., 0.,
          0., 0., 0., 0., 0., 6., 62., 2., 0., 0., 0., 0., 1., 11., 19.,
          1., 0., 0., 0., 0., 2., 2., 0., 0., 0., 0., 0., 1., 0., 41.,
          182., 0., 0., 0., 0., 0., 14., 106., 182., 0., 0., 0., 0., 0.,
          114., 172., 101., 0., 0., 0., 0., 1., 21., 9., 0., 0., 0., 0.,
          0., 1., 0., 8., 67., 0., 0., 0., 0., 0., 120., 45., 76., 0.,
          0., 0., 0., 8., 182., 52., 9., 0., 0., 0., 0., 32., 44., 1.,
          0., 0., 0., 0., 0., 5., 1., 0., 0., 0., 0., 0., 0., 0., 141.,
          0., 0., 0., 0., 0., 0., 14., 182., 0., 0., 0., 0., 0., 0., 39.,
          26., 0., 0., 0., 0., 0., 0., 3., 1., 0., 0., 0., 0., 0., 0.,
          0., 139., 14., 0., 0., 0., 0., 0., 0., 183., 38., 0., 0., 0.,
          0., 0., 0., 26., 3., 0., 0., 0., 0., 0., 0., 1., 0., 0., 0.,
          0., 0., 69., 8., 121., 7., 0., 0., 0., 0., 80., 41., 183., 33.,
          0., 0., 0., 0., 10., 50., 44., 5., 0., 0., 0., 0., 0., 1., 0.,
          0., 0., 0., 0., 0., 183., 39., 14., 0., 0., 0., 0., 0., 183.,
          102., 115., 2., 0., 0., 0., 0., 107., 167., 22., 1., 0., 0.,
          0., 0., 0., 9., 0., 0., 0., 0., 0., 0., 64., 6., 0., 0., 0.,
          0., 1., 1., 56., 7., 2., 0., 0., 0., 1., 1., 18., 10., 3., 0.,
          0., 0., 0., 0., 0., 2., 0., 6., 64., 0., 0., 0., 0., 0., 0.,
          6., 61., 1., 0., 0., 0., 0., 0., 10., 23., 0., 0., 0., 0., 0.,
          0., 2., 2., 0., 0., 0., 0., 0., 0., 39., 184., 0., 0., 0., 0.,
          0., 15., 98., 184., 0., 0., 0., 0., 0., 116., 166., 108., 0.,
          0., 0., 0., 1., 17., 10., 2., 0., 0., 0., 1., 2., 0., 7., 70.,
          0., 0., 0., 0., 0., 121., 41., 80., 0., 0., 0., 0., 7., 184.,
          49., 10., 0., 0., 0., 0., 29., 41., 1., 0., 0., 0., 0., 1., 5.,
          0., 0., 1., 0., 0., 0., 0., 0., 139., 0., 0., 0., 0., 0., 0.,
          13., 184., 0., 0., 0., 0., 0., 0., 37., 25., 0., 0., 0., 0.,
          0., 0., 4., 0., 0., 0., 38., 10., 0., 0., 0., 152., 20., 0.,
          2., 2., 0., 0., 0., 179., 49., 0., 0., 0., 0., 0., 0., 24., 3.,
          0., 0., 0., 0., 0., 0., 0., 0., 0., 9., 1., 0., 60., 7., 131.,
          11., 0., 0., 0., 0., 75., 42., 179., 39., 0., 0., 0., 0., 9.,
          52., 44., 4., 0., 0., 0., 0., 0., 1., 0., 0., 0., 0., 0., 0.,
          179., 46., 17., 0., 0., 0., 0., 0., 179., 115., 128., 1., 0.,
          0., 0., 0., 75., 177., 20., 0., 0., 0., 0., 0., 0., 7., 0., 0.,
          0., 0., 0., 0., 36., 5., 0., 0., 0., 0., 0., 0., 25., 5., 1.,
          0., 0., 0., 0., 0., 4., 6., 0., 0., 0., 0., 0., 0., 0., 0., 0.,
          10., 75., 0., 0., 0., 0., 0., 0., 10., 65., 0., 0., 0., 0., 0.,
          0., 11., 19., 0., 0., 0., 0., 0., 0., 1., 0., 0., 0., 0., 0.,
          0., 0., 53., 177., 0., 0., 0., 0., 0., 15., 123., 177., 0., 0.,
          0., 0., 0., 89., 177., 112., 0., 0., 0., 0., 1., 4., 7., 1.,
          0., 0., 0., 0., 0., 0., 8., 63., 0., 0., 7., 1., 0., 123., 44.,
          79., 0., 0., 0., 0., 11., 177., 57., 11., 0., 0., 0., 0., 33.,
          12., 1., 0., 0., 0., 0., 0., 1., 0., 0., 0., 0., 7., 42., 1.,
          0., 145., 0., 0., 0., 1., 4., 0., 20., 177., 0., 0., 0., 0.,
          0., 0., 41., 4., 0., 0., 0., 0., 0., 0., 1., 0., 4., 22., 0.,
          0., 0., 0., 0., 0., 3., 12., 0., 0., 0., 0., 0., 2., 3., 1.,
          0., 0., 0., 0., 0., 0., 0., 0., 0., 0., 0., 0., 0., 3., 46.,
          174., 3., 1., 2., 2., 6., 34., 108., 174., 7., 3., 5., 1., 1.,
          174., 164., 29., 0., 0., 0., 0., 3., 20., 5., 0., 0., 0., 0.,
          0., 0., 11., 7., 18., 4., 4., 9., 8., 20., 139., 26., 36., 13.,
          25., 34., 5., 23., 174., 41., 4., 0., 0., 1., 1., 63., 29., 1.,
          0., 0., 0., 0., 0., 3., 9., 12., 9., 22., 2., 2., 3., 1., 168.,
          6., 5., 41., 11., 2., 2., 24., 174., 1., 0., 0., 0., 0., 0.,
          63., 11., 0., 0., 0., 0., 0., 0., 2., 18., 6., 20., 5., 3., 5.,
          5., 17., 119., 25., 13., 16., 21., 28., 6., 3., 187., 74., 1.,
          1., 1., 1., 0., 1., 20., 3., 0., 0., 0., 0., 0., 0., 16., 39.,
          10., 15., 9., 3., 16., 7., 110., 23., 7., 61., 25., 6., 35.,
          21., 187., 69., 1., 3., 1., 0., 6., 41., 46., 4., 0., 0., 0.,
          0., 0., 1., 3., 9., 3., 3., 4., 16., 187., 35., 30., 1., 1.,
          8., 4., 7., 187., 83., 187., 4., 0., 0., 0., 0., 32., 149.,
          30., 0., 0., 0., 0., 0., 0., 5., 0., 0., 0., 0., 0., 1., 12.,
          1., 0., 0., 0., 0., 0., 0., 7., 2., 2., 0., 0., 0., 0., 0., 0.,
          1., 0., 0., 0., 0., 0., 0., 0., 0., 61., 0., 0., 0., 0., 0.,
          0., 6., 169., 1., 0., 3., 15., 0., 0., 25., 42., 1., 1., 38.,
          144., 1., 0., 4., 5., 1., 4., 20., 17., 1., 0., 2., 89., 2.,
          0., 0., 0., 0., 0., 2., 169., 2., 0., 3., 25., 3., 1., 21.,
          43., 2., 0., 22., 169., 8., 1., 4., 15., 5., 2., 7., 24., 0.,
          0., 1., 89., 3., 0., 0., 0., 0., 0., 1., 169., 20., 0., 3.,
          27., 1., 0., 3., 43., 5., 0., 17., 169., 8., 0., 1., 10., 7.,
          2., 5., 26., 3., 1., 3., 51., 8., 0., 0., 0., 0., 0., 1., 169.,
          38., 0., 0., 17., 2., 0., 0., 44., 5., 0., 1., 169., 28., 1.,
          1., 2., 0., 1., 7., 23., 7., 2., 3., 0., 0., 1., 14., 28., 3.,
          1., 0., 153., 21., 1., 15., 42., 2., 0., 0., 175., 45., 0., 0.,
          0., 0., 0., 0., 11., 1., 0., 0., 0., 0., 0., 0., 0., 0., 7.,
          62., 13., 4., 41., 2., 148., 13., 0., 29., 15., 2., 66., 43.,
          175., 36., 0., 0., 0., 0., 7., 52., 25., 2., 0., 0., 0., 0.,
          0., 1., 0., 0., 1., 6., 2., 4., 175., 32., 21., 0., 0., 1., 1.,
          1., 175., 123., 137., 1., 0., 0., 0., 0., 58., 175., 12., 0.,
          0., 0., 0., 0., 0., 6., 0., 0., 0., 0., 0., 0., 29., 3., 0.,
          0., 0., 0., 0., 0., 19., 4., 1., 0., 0., 0., 0., 0., 2., 4.,
          0., 0., 0., 0., 0., 0., 0., 0., 52., 0., 0., 0., 0., 0., 0.,
          3., 169., 1., 0., 2., 21., 0., 0., 21., 48., 1., 0., 15., 169.,
          0., 0., 5., 5., 2., 0., 1., 19., 0., 8., 7., 70., 3., 0., 0.,
          0., 0., 0., 1., 169., 10., 0., 1., 28., 3., 0., 3., 60., 2.,
          0., 6., 169., 17., 0., 2., 21., 2., 1., 1., 21., 1., 1., 3.,
          60., 5., 0., 0., 0., 0., 0., 1., 169., 33., 0., 1., 22., 2.,
          0., 0., 65., 7., 0., 2., 169., 27., 0., 1., 12., 3., 1., 1.,
          24., 5., 0., 4., 30., 7., 0., 0., 0., 0., 0., 1., 169., 73.,
          0., 0., 6., 2., 0., 0., 63., 22., 0., 0., 142., 45., 0., 0.,
          8., 0., 0., 0., 28., 12., 3., 7., 52., 31., 0., 0., 16., 37.,
          2., 2., 32., 10., 0., 0., 0., 13., 40., 15., 4., 2., 2., 3.,
          3., 24., 24., 3., 0., 0., 1., 8., 11., 3., 0., 0., 60., 14.,
          0., 0., 67., 127., 4., 6., 127., 27., 3., 4., 5., 28., 63.,
          85., 7., 3., 3., 20., 85., 127., 59., 15., 0., 0., 9., 18.,
          33., 22., 1., 1., 16., 4., 1., 1., 93., 127., 6., 6., 113.,
          127., 71., 21., 36., 34., 5., 17., 11., 62., 62., 75., 91.,
          40., 12., 5., 1., 2., 6., 13., 39., 94., 14., 1., 2., 20., 1.,
          1., 92., 127., 0., 0., 0., 48., 30., 4., 60., 127., 1., 0.,
          10., 127., 29., 2., 3., 30., 7., 2., 2., 53., 17., 4., 31.,
          59., 6., 1., 44., 0., 0., 0., 0., 0., 0., 11., 171., 0., 0.,
          3., 10., 0., 0., 66., 61., 0., 0., 41., 171., 0., 0., 14., 10.,
          1., 1., 7., 35., 1., 0., 4., 83., 1., 0., 0., 0., 0., 0., 5.,
          171., 6., 0., 2., 24., 1., 0., 15., 59., 1., 0., 14., 171., 3.,
          0., 3., 7., 0., 0., 2., 31., 1., 2., 13., 77., 6., 0., 0., 0.,
          0., 0., 3., 171., 28., 0., 3., 23., 0., 0., 0., 53., 7., 1.,
          10., 171., 21., 11., 1., 2., 0., 1., 4., 22., 15., 20., 8.,
          45., 10., 0., 0., 0., 0., 0., 0., 171., 58., 0., 2., 13., 0.,
          0., 0., 40., 14., 6., 17., 106., 8., 3., 0., 0., 0., 7., 25.,
          28., 6., 4., 0., 42., 0., 0., 0., 0., 0., 0., 12., 159., 0.,
          0., 1., 3., 0., 0., 100., 74., 1., 0., 56., 131., 0., 0., 36.,
          1., 0., 0., 20., 51., 8., 4., 2., 92., 0., 0., 0., 0., 0., 0.,
          10., 159., 4., 1., 7., 16., 0., 0., 50., 61., 3., 1., 80.,
          159., 0., 0., 8., 8., 2., 1., 14., 26., 2., 2., 2., 97., 7.,
          0., 0., 0., 0., 0., 1., 159., 57., 1., 10., 22., 0., 0., 5.,
          37., 13., 2., 39., 159., 4., 0., 2., 9., 2., 5., 2., 14., 2.,
          1., 5., 43., 14., 0., 0., 0., 0., 0., 0., 159., 96., 0., 1.,
          11., 1., 0., 0., 35., 22., 2., 6., 122., 17., 0., 0., 4., 4.,
          12., 3., 14., 3., 0., 3., 10., 10., 4., 1., 2., 1., 2., 12.,
          89., 7., 0., 2., 23., 7., 2., 5., 169., 23., 0., 1., 15., 1.,
          0., 8., 18., 2., 0., 3., 150., 6., 0., 1., 16., 10., 1., 1.,
          4., 3., 5., 37., 79., 17., 1., 10., 57., 13., 5., 7., 169.,
          47., 0., 3., 18., 1., 0., 4., 32., 4., 0., 5., 169., 9., 0.,
          1., 7., 32., 6., 5., 5., 1., 0., 1., 86., 13., 4., 25., 53.,
          0., 0., 2., 169., 3., 0., 2., 17., 2., 0., 17., 39., 0., 0.,
          2., 169., 14., 0., 3., 3., 4., 1., 2., 7., 4., 3., 5., 79., 4.,
          1., 14., 31., 0., 0., 5., 169., 2., 0., 4., 12., 0., 0., 13.,
          29., 1., 0., 17., 134., 0., 0., 1. ]
      - [ 1., 0., 0., 0., 0., 0., 0., 0., 139., 14., 0., 0., 0., 0., 0.,
          0., 183., 38., 0., 0., 0., 0., 0., 0., 26., 3., 0., 0., 0., 0.,
          0., 0., 1., 0., 0., 0., 0., 0., 69., 8., 121., 7., 0., 0., 0.,
          0., 80., 41., 183., 33., 0., 0., 0., 0., 10., 50., 44., 5., 0.,
          0., 0., 0., 0., 1., 0., 0., 0., 0., 0., 0., 183., 39., 14., 0.,
          0., 0., 0., 0., 183., 102., 115., 2., 0., 0., 0., 0., 107.,
          167., 22., 1., 0., 0., 0., 0., 0., 9., 0., 0., 0., 0., 0., 0.,
          64., 6., 0., 0., 0., 0., 1., 1., 56., 7., 2., 0., 0., 0., 1.,
          1., 18., 10., 3., 0., 0., 0., 0., 0., 0., 2., 0., 6., 64., 0.,
          0., 0., 0., 0., 0., 6., 61., 1., 0., 0., 0., 0., 0., 10., 23.,
          0., 0., 0., 0., 0., 0., 2., 2., 0., 0., 0., 0., 0., 0., 39.,
          184., 0., 0., 0., 0., 0., 15., 98., 184., 0., 0., 0., 0., 0.,
          116., 166., 108., 0., 0., 0., 0., 1., 17., 10., 2., 0., 0., 0.,
          1., 2., 0., 7., 70., 0., 0., 0., 0., 0., 121., 41., 80., 0.,
          0., 0., 0., 7., 184., 49., 10., 0., 0., 0., 0., 29., 41., 1.,
          0., 0., 0., 0., 1., 5., 0., 0., 1., 0., 0., 0., 0., 0., 139.,
          0., 0., 0., 0., 0., 0., 13., 184., 0., 0., 0., 0., 0., 0., 37.,
          25., 0., 0., 0., 0., 0., 0., 4., 0., 0., 0., 0., 0., 0., 0.,
          0., 146., 18., 0., 0., 0., 0., 0., 0., 178., 48., 0., 0., 0.,
          0., 0., 0., 23., 3., 0., 0., 0., 0., 0., 0., 0., 0., 0., 0.,
          0., 0., 61., 8., 124., 9., 0., 0., 0., 0., 72., 44., 178., 39.,
          0., 0., 0., 0., 9., 50., 40., 8., 1., 0., 0., 0., 0., 1., 0.,
          0., 0., 0., 0., 0., 178., 50., 15., 0., 0., 0., 0., 0., 178.,
          115., 111., 1., 0., 0., 0., 0., 104., 172., 17., 1., 0., 0.,
          0., 0., 1., 11., 0., 0., 0., 0., 0., 0., 71., 9., 0., 0., 0.,
          0., 0., 0., 63., 9., 0., 0., 0., 0., 0., 0., 21., 11., 0., 0.,
          0., 0., 0., 1., 2., 2., 0., 7., 67., 0., 0., 0., 0., 0., 0.,
          6., 62., 2., 0., 0., 0., 0., 1., 11., 19., 1., 0., 0., 0., 0.,
          2., 2., 0., 0., 0., 0., 0., 1., 0., 41., 182., 0., 0., 0., 0.,
          0., 14., 106., 182., 0., 0., 0., 0., 0., 114., 172., 101., 0.,
          0., 0., 0., 1., 21., 9., 0., 0., 0., 0., 0., 1., 0., 8., 67.,
          0., 0., 0., 0., 0., 120., 45., 76., 0., 0., 0., 0., 8., 182.,
          52., 9., 0., 0., 0., 0., 32., 44., 1., 0., 0., 0., 0., 0., 5.,
          1., 0., 0., 0., 0., 0., 0., 0., 141., 0., 0., 0., 0., 0., 0.,
          14., 182., 0., 0., 0., 0., 0., 0., 39., 26., 0., 0., 0., 0.,
          0., 0., 3., 0., 0., 0., 31., 7., 0., 0., 0., 153., 20., 0., 1.,
          1., 0., 0., 0., 179., 49., 0., 0., 0., 0., 0., 0., 24., 3., 0.,
          0., 0., 0., 0., 0., 0., 0., 0., 5., 0., 0., 61., 7., 132., 11.,
          0., 0., 0., 0., 75., 42., 179., 40., 0., 0., 0., 0., 9., 52.,
          44., 4., 0., 0., 0., 0., 0., 1., 0., 0., 0., 0., 0., 0., 179.,
          46., 17., 0., 0., 0., 0., 0., 179., 115., 129., 1., 0., 0., 0.,
          0., 75., 177., 20., 0., 0., 0., 0., 0., 0., 7., 0., 0., 0., 0.,
          0., 0., 36., 5., 0., 0., 0., 0., 0., 0., 25., 5., 1., 0., 0.,
          0., 0., 0., 4., 6., 0., 0., 0., 0., 0., 0., 0., 0., 0., 10.,
          75., 0., 0., 0., 0., 0., 0., 10., 65., 0., 0., 0., 0., 0., 0.,
          11., 19., 0., 0., 0., 0., 0., 0., 1., 0., 0., 0., 0., 0., 0.,
          0., 53., 177., 0., 0., 0., 0., 0., 15., 123., 177., 0., 0., 0.,
          0., 0., 89., 177., 112., 0., 0., 0., 0., 1., 4., 7., 1., 0.,
          0., 0., 0., 0., 0., 8., 63., 0., 0., 5., 1., 0., 123., 44.,
          79., 0., 0., 0., 0., 11., 177., 57., 11., 0., 0., 0., 0., 33.,
          12., 1., 0., 0., 0., 0., 0., 1., 0., 0., 0., 0., 5., 32., 0.,
          0., 146., 0., 0., 0., 1., 2., 0., 20., 177., 0., 0., 0., 0.,
          0., 0., 41., 4., 0., 0., 0., 0., 0., 0., 1., 0., 2., 18., 0.,
          0., 0., 0., 0., 0., 2., 11., 0., 0., 0., 0., 0., 0., 2., 2.,
          0., 0., 0., 0., 0., 0., 0., 0., 0., 0., 0., 0., 0., 0., 27.,
          183., 3., 1., 5., 2., 0., 19., 101., 183., 2., 1., 2., 0., 0.,
          142., 172., 67., 0., 0., 0., 0., 1., 19., 6., 0., 0., 0., 0.,
          0., 0., 1., 3., 48., 3., 6., 50., 20., 3., 128., 38., 77., 2.,
          17., 48., 3., 11., 183., 56., 11., 0., 0., 0., 0., 34., 44.,
          1., 0., 0., 0., 0., 0., 3., 3., 3., 5., 7., 15., 10., 4., 3.,
          131., 0., 1., 10., 51., 20., 1., 14., 183., 0., 0., 0., 1., 0.,
          0., 42., 25., 0., 0., 0., 0., 0., 0., 2., 0., 0., 1., 15., 30.,
          3., 0., 0., 154., 21., 1., 14., 39., 3., 0., 0., 175., 45., 0.,
          0., 0., 0., 0., 0., 11., 1., 0., 0., 0., 0., 0., 0., 0., 0.,
          8., 60., 12., 4., 43., 3., 148., 13., 0., 27., 14., 2., 66.,
          44., 175., 36., 0., 0., 0., 0., 7., 52., 25., 2., 0., 0., 0.,
          0., 0., 1., 0., 0., 1., 6., 2., 3., 175., 33., 21., 0., 0., 1.,
          1., 1., 175., 124., 137., 1., 0., 0., 0., 0., 57., 175., 12.,
          0., 0., 0., 0., 0., 0., 6., 0., 0., 0., 0., 0., 0., 29., 3.,
          0., 0., 0., 0., 0., 0., 19., 4., 1., 0., 0., 0., 0., 0., 2.,
          4., 0., 0., 0., 0., 0., 0., 0., 0., 0., 3., 21., 0., 0., 0.,
          0., 0., 0., 3., 11., 0., 0., 0., 0., 0., 2., 3., 1., 0., 0.,
          0., 0., 0., 0., 0., 0., 0., 0., 0., 0., 0., 3., 45., 173., 3.,
          1., 2., 2., 5., 34., 110., 173., 6., 3., 5., 1., 1., 173.,
          161., 29., 0., 0., 0., 0., 3., 19., 5., 0., 0., 0., 0., 0., 0.,
          10., 7., 19., 4., 3., 9., 10., 21., 141., 28., 37., 12., 23.,
          34., 5., 23., 173., 42., 4., 0., 0., 1., 1., 61., 28., 1., 0.,
          0., 0., 0., 0., 2., 8., 14., 11., 22., 2., 2., 5., 1., 170.,
          6., 6., 41., 9., 2., 3., 26., 173., 1., 0., 0., 0., 0., 0.,
          63., 10., 0., 0., 0., 0., 0., 0., 2., 16., 6., 27., 7., 4., 5.,
          6., 18., 121., 28., 18., 17., 19., 29., 6., 3., 186., 77., 1.,
          1., 1., 1., 0., 1., 18., 2., 0., 0., 0., 0., 0., 0., 14., 41.,
          12., 15., 11., 4., 18., 7., 115., 23., 8., 64., 21., 5., 38.,
          23., 186., 69., 1., 3., 1., 0., 6., 41., 42., 4., 0., 0., 0.,
          0., 0., 1., 3., 9., 3., 3., 5., 19., 186., 33., 31., 1., 1.,
          8., 4., 6., 186., 86., 186., 4., 0., 0., 0., 0., 31., 145.,
          28., 0., 0., 0., 0., 0., 0., 4., 0., 0., 0., 0., 0., 2., 12.,
          1., 0., 0., 0., 0., 0., 0., 6., 1., 1., 0., 0., 0., 0., 0., 0.,
          1., 0., 0., 0., 0., 0., 0., 0., 0., 29., 5., 0., 1., 27., 7.,
          2., 3., 102., 7., 0., 0., 61., 27., 5., 5., 171., 27., 0., 0.,
          19., 4., 1., 3., 16., 2., 0., 1., 127., 23., 0., 0., 50., 17.,
          2., 5., 7., 9., 9., 13., 79., 11., 2., 32., 49., 50., 16., 9.,
          171., 36., 0., 4., 17., 5., 2., 11., 33., 3., 0., 2., 145.,
          33., 1., 2., 45., 32., 6., 15., 8., 0., 0., 3., 94., 9., 5.,
          62., 61., 1., 0., 6., 171., 5., 0., 3., 10., 3., 0., 26., 43.,
          0., 0., 1., 141., 31., 0., 5., 18., 5., 1., 7., 12., 0., 0.,
          6., 87., 4., 1., 19., 44., 0., 0., 1., 171., 10., 0., 3., 7.,
          0., 0., 5., 34., 3., 0., 18., 119., 1., 0., 1., 65., 0., 0.,
          0., 0., 0., 0., 9., 166., 2., 0., 2., 3., 0., 0., 46., 72., 2.,
          1., 45., 166., 1., 0., 9., 5., 1., 2., 11., 58., 3., 1., 3.,
          102., 0., 0., 0., 0., 0., 0., 11., 166., 4., 0., 4., 16., 1.,
          0., 30., 53., 3., 1., 52., 166., 13., 4., 5., 1., 2., 2., 10.,
          45., 30., 9., 2., 107., 9., 0., 0., 0., 0., 0., 3., 166., 34.,
          0., 1., 18., 1., 0., 4., 45., 8., 1., 3., 116., 44., 25., 7.,
          0., 0., 0., 3., 42., 68., 31., 7., 62., 13., 0., 0., 0., 0.,
          0., 0., 166., 84., 1., 2., 4., 0., 0., 0., 36., 26., 20., 32.,
          36., 9., 5., 2., 1., 3., 22., 38., 58., 10., 4., 2., 66., 5.,
          5., 0., 0., 0., 2., 69., 102., 0., 0., 0., 1., 0., 3., 123.,
          40., 0., 1., 37., 23., 1., 3., 99., 2., 0., 1., 80., 88., 0.,
          0., 1., 123., 7., 0., 0., 0., 0., 0., 82., 123., 17., 0., 4.,
          10., 3., 0., 89., 34., 3., 1., 90., 117., 5., 1., 25., 0., 0.,
          0., 96., 80., 0., 0., 0., 96., 8., 0., 0., 0., 0., 14., 111.,
          123., 49., 10., 27., 11., 1., 16., 46., 18., 14., 9., 123.,
          100., 1., 0., 1., 0., 0., 0., 88., 42., 0., 0., 0., 61., 0.,
          0., 1., 0., 1., 15., 117., 16., 4., 3., 21., 21., 14., 27.,
          35., 1., 1., 2., 49., 104., 11., 0., 0., 0., 0., 1., 24., 43.,
          0., 0., 0., 26., 8., 1., 2., 21., 4., 0., 2., 143., 28., 0.,
          2., 19., 2., 0., 0., 26., 1., 0., 3., 143., 15., 0., 0., 0.,
          0., 0., 1., 140., 21., 0., 0., 37., 1., 0., 0., 36., 14., 2.,
          5., 143., 6., 0., 1., 27., 6., 1., 6., 42., 1., 0., 3., 143.,
          14., 0., 0., 0., 0., 0., 2., 143., 10., 0., 0., 35., 8., 3.,
          14., 14., 14., 3., 6., 143., 5., 1., 6., 20., 8., 1., 18., 43.,
          1., 0., 1., 143., 25., 0., 4., 0., 0., 0., 1., 143., 14., 0.,
          0., 31., 6., 3., 19., 11., 0., 0., 2., 143., 2., 0., 7., 13.,
          1., 0., 21., 31., 0., 0., 11., 141., 8., 0., 4., 0., 0., 0.,
          5., 143., 2., 0., 0., 27., 2., 0., 1., 8., 4., 1., 2., 144.,
          7., 0., 0., 12., 2., 0., 3., 31., 1., 0., 1., 144., 16., 0.,
          1., 0., 0., 0., 0., 144., 23., 0., 0., 27., 1., 0., 1., 4., 8.,
          9., 12., 144., 6., 0., 1., 14., 1., 1., 20., 39., 2., 0., 5.,
          144., 3., 0., 1., 0., 0., 0., 0., 144., 11., 0., 0., 30., 19.,
          15., 18., 4., 2., 2., 4., 144., 28., 2., 5., 11., 0., 0., 6.,
          31., 6., 1., 14., 144., 1., 0., 1., 0., 0., 0., 7., 144., 3.,
          0., 0., 27., 5., 6., 3., 1., 6., 12., 9., 144., 4., 1., 3., 8.,
          1., 1., 10., 24., 2., 0., 29., 142., 0., 0., 1., 0., 0., 0.,
          25., 144., 0., 0., 0. ]
      - [ 1., 0., 0., 0., 0., 0., 0., 0., 139., 14., 0., 0., 0., 0., 0.,
          0., 183., 38., 0., 0., 0., 0., 0., 0., 26., 3., 0., 0., 0., 0.,
          0., 0., 1., 0., 0., 0., 0., 0., 69., 8., 121., 7., 0., 0., 0.,
          0., 80., 41., 183., 33., 0., 0., 0., 0., 10., 50., 44., 5., 0.,
          0., 0., 0., 0., 1., 0., 0., 0., 0., 0., 0., 183., 39., 14., 0.,
          0., 0., 0., 0., 183., 102., 115., 2., 0., 0., 0., 0., 107.,
          167., 22., 1., 0., 0., 0., 0., 0., 9., 0., 0., 0., 0., 0., 0.,
          64., 6., 0., 0., 0., 0., 1., 1., 56., 7., 2., 0., 0., 0., 1.,
          1., 18., 10., 3., 0., 0., 0., 0., 0., 0., 2., 0., 6., 64., 0.,
          0., 0., 0., 0., 0., 6., 61., 1., 0., 0., 0., 0., 0., 10., 23.,
          0., 0., 0., 0., 0., 0., 2., 2., 0., 0., 0., 0., 0., 0., 39.,
          184., 0., 0., 0., 0., 0., 15., 98., 184., 0., 0., 0., 0., 0.,
          116., 166., 108., 0., 0., 0., 0., 1., 17., 10., 2., 0., 0., 0.,
          1., 2., 0., 7., 70., 0., 0., 0., 0., 0., 121., 41., 80., 0.,
          0., 0., 0., 7., 184., 49., 10., 0., 0., 0., 0., 29., 41., 1.,
          0., 0., 0., 0., 1., 5., 0., 0., 1., 0., 0., 0., 0., 0., 139.,
          0., 0., 0., 0., 0., 0., 13., 184., 0., 0., 0., 0., 0., 0., 37.,
          25., 0., 0., 0., 0., 0., 0., 4., 0., 0., 0., 0., 0., 0., 0.,
          0., 146., 18., 0., 0., 0., 0., 0., 0., 178., 48., 0., 0., 0.,
          0., 0., 0., 23., 3., 0., 0., 0., 0., 0., 0., 0., 0., 0., 0.,
          0., 0., 61., 8., 124., 9., 0., 0., 0., 0., 72., 44., 178., 39.,
          0., 0., 0., 0., 9., 50., 40., 8., 1., 0., 0., 0., 0., 1., 0.,
          0., 0., 0., 0., 0., 178., 50., 15., 0., 0., 0., 0., 0., 178.,
          115., 111., 1., 0., 0., 0., 0., 104., 172., 17., 1., 0., 0.,
          0., 0., 1., 11., 0., 0., 0., 0., 0., 0., 71., 9., 0., 0., 0.,
          0., 0., 0., 63., 9., 0., 0., 0., 0., 0., 0., 21., 11., 0., 0.,
          0., 0., 0., 1., 2., 2., 0., 7., 67., 0., 0., 0., 0., 0., 0.,
          6., 62., 2., 0., 0., 0., 0., 1., 11., 19., 1., 0., 0., 0., 0.,
          2., 2., 0., 0., 0., 0., 0., 1., 0., 41., 182., 0., 0., 0., 0.,
          0., 14., 106., 182., 0., 0., 0., 0., 0., 114., 172., 101., 0.,
          0., 0., 0., 1., 21., 9., 0., 0., 0., 0., 0., 1., 0., 8., 67.,
          0., 0., 0., 0., 0., 120., 45., 76., 0., 0., 0., 0., 8., 182.,
          52., 9., 0., 0., 0., 0., 32., 44., 1., 0., 0., 0., 0., 0., 5.,
          1., 0., 0., 0., 0., 0., 0., 0., 141., 0., 0., 0., 0., 0., 0.,
          14., 182., 0., 0., 0., 0., 0., 0., 39., 26., 0., 0., 0., 0.,
          0., 0., 3., 0., 0., 0., 20., 4., 0., 0., 0., 153., 20., 0., 1.,
          0., 0., 0., 0., 179., 49., 0., 0., 0., 0., 0., 0., 24., 3., 0.,
          0., 0., 0., 0., 0., 0., 0., 0., 2., 0., 0., 61., 8., 132., 11.,
          0., 0., 0., 0., 75., 42., 179., 40., 0., 0., 0., 0., 9., 52.,
          44., 4., 0., 0., 0., 0., 0., 1., 0., 0., 0., 0., 0., 0., 179.,
          46., 17., 0., 0., 0., 0., 0., 179., 115., 129., 1., 0., 0., 0.,
          0., 75., 178., 20., 0., 0., 0., 0., 0., 0., 7., 0., 0., 0., 0.,
          0., 0., 36., 5., 0., 0., 0., 0., 0., 0., 25., 5., 1., 0., 0.,
          0., 0., 0., 4., 6., 0., 0., 0., 0., 0., 0., 0., 0., 0., 10.,
          75., 0., 0., 0., 0., 0., 0., 11., 65., 0., 0., 0., 0., 0., 0.,
          11., 20., 0., 0., 0., 0., 0., 0., 1., 0., 0., 0., 0., 0., 0.,
          0., 54., 177., 0., 0., 0., 0., 0., 15., 123., 177., 0., 0., 0.,
          0., 0., 90., 177., 112., 0., 0., 0., 0., 1., 4., 7., 1., 0.,
          0., 0., 0., 0., 0., 8., 63., 0., 0., 2., 0., 0., 124., 44.,
          79., 0., 0., 0., 0., 11., 177., 57., 11., 0., 0., 0., 0., 33.,
          12., 1., 0., 0., 0., 0., 0., 1., 0., 0., 0., 0., 3., 21., 0.,
          0., 147., 0., 0., 0., 0., 1., 0., 20., 177., 0., 0., 0., 0.,
          0., 0., 42., 4., 0., 0., 0., 0., 0., 0., 1., 0., 2., 20., 0.,
          0., 0., 0., 0., 0., 2., 12., 0., 0., 0., 0., 0., 0., 3., 2.,
          0., 0., 0., 0., 0., 0., 0., 0., 0., 0., 0., 0., 0., 0., 29.,
          183., 2., 1., 5., 3., 0., 18., 103., 183., 1., 0., 1., 0., 0.,
          141., 174., 66., 0., 0., 0., 0., 1., 20., 6., 0., 0., 0., 0.,
          0., 0., 1., 3., 49., 3., 6., 50., 20., 2., 128., 39., 75., 2.,
          15., 41., 2., 10., 183., 55., 10., 0., 0., 0., 0., 34., 47.,
          1., 0., 0., 0., 0., 0., 3., 4., 3., 3., 6., 16., 11., 3., 3.,
          133., 0., 0., 9., 49., 19., 1., 15., 183., 0., 0., 0., 0., 0.,
          0., 42., 26., 0., 0., 0., 0., 0., 0., 3., 0., 0., 1., 14., 32.,
          4., 0., 0., 158., 21., 0., 12., 36., 3., 0., 0., 174., 46., 0.,
          0., 0., 0., 0., 0., 12., 1., 0., 0., 0., 0., 0., 0., 0., 0.,
          8., 58., 13., 3., 44., 3., 149., 13., 0., 22., 13., 1., 66.,
          45., 174., 36., 0., 0., 0., 0., 7., 51., 26., 2., 0., 0., 0.,
          0., 0., 1., 0., 0., 2., 5., 1., 3., 174., 35., 21., 0., 0., 1.,
          0., 1., 174., 125., 137., 1., 0., 0., 0., 0., 57., 174., 12.,
          0., 0., 0., 0., 0., 0., 6., 0., 0., 0., 0., 0., 0., 30., 4.,
          0., 0., 0., 0., 0., 0., 20., 4., 1., 0., 0., 0., 0., 0., 3.,
          5., 0., 0., 0., 0., 0., 0., 0., 0., 0., 3., 20., 0., 0., 0.,
          0., 0., 0., 3., 11., 0., 0., 0., 0., 0., 2., 2., 1., 0., 0.,
          0., 0., 0., 0., 0., 0., 0., 0., 0., 0., 0., 2., 42., 173., 3.,
          1., 2., 2., 5., 34., 111., 173., 5., 3., 5., 1., 1., 173.,
          160., 29., 0., 0., 0., 0., 3., 18., 5., 0., 0., 0., 0., 0., 0.,
          12., 8., 20., 4., 3., 9., 9., 19., 144., 29., 38., 12., 22.,
          32., 4., 22., 173., 42., 4., 0., 0., 1., 0., 59., 27., 1., 0.,
          0., 0., 0., 0., 2., 9., 15., 12., 22., 2., 2., 6., 1., 172.,
          6., 7., 40., 8., 3., 3., 27., 173., 1., 0., 0., 0., 0., 0.,
          62., 10., 0., 0., 0., 0., 0., 0., 1., 30., 0., 0., 0., 0., 0.,
          0., 7., 173., 0., 0., 1., 7., 0., 0., 76., 78., 0., 0., 29.,
          138., 3., 0., 23., 0., 0., 2., 9., 25., 14., 7., 0., 64., 0.,
          0., 0., 0., 0., 0., 5., 173., 3., 0., 1., 18., 0., 0., 40.,
          76., 1., 0., 13., 173., 5., 0., 8., 0., 0., 4., 12., 35., 5.,
          2., 1., 68., 3., 0., 0., 0., 0., 0., 0., 173., 34., 0., 3.,
          18., 0., 0., 2., 68., 10., 1., 22., 173., 4., 0., 0., 1., 5.,
          7., 12., 29., 5., 4., 3., 36., 7., 0., 0., 0., 0., 0., 0.,
          173., 71., 0., 1., 7., 1., 0., 0., 58., 23., 1., 4., 88., 53.,
          0., 0., 4., 7., 5., 5., 29., 34., 0., 1., 22., 18., 7., 0., 0.,
          0., 0., 2., 143., 22., 1., 0., 12., 0., 0., 0., 34., 4., 0.,
          2., 143., 13., 0., 0., 0., 0., 0., 0., 143., 25., 0., 0., 29.,
          12., 3., 1., 0., 0., 2., 15., 143., 12., 0., 3., 13., 0., 0.,
          1., 47., 2., 0., 17., 143., 1., 0., 0., 0., 0., 0., 4., 143.,
          4., 0., 0., 28., 12., 4., 3., 0., 1., 2., 5., 143., 5., 1., 6.,
          15., 0., 0., 17., 35., 2., 0., 33., 143., 0., 0., 2., 0., 0.,
          0., 14., 143., 0., 0., 0., 28., 2., 1., 0., 1., 7., 11., 13.,
          143., 0., 0., 6., 20., 0., 1., 44., 13., 0., 0., 41., 143., 0.,
          0., 3., 0., 0., 0., 35., 143., 0., 0., 0., 16., 0., 0., 0., 0.,
          0., 0., 8., 179., 0., 0., 2., 1., 0., 0., 137., 119., 0., 0.,
          57., 71., 0., 0., 76., 5., 1., 1., 23., 30., 3., 3., 12., 50.,
          1., 0., 0., 0., 0., 0., 8., 179., 5., 0., 4., 11., 1., 0., 73.,
          100., 4., 1., 51., 129., 5., 0., 15., 40., 3., 1., 11., 13.,
          0., 0., 21., 61., 2., 0., 0., 0., 0., 0., 2., 179., 35., 1.,
          7., 10., 1., 0., 4., 81., 13., 2., 45., 109., 12., 2., 6., 63.,
          5., 1., 4., 8., 1., 1., 15., 43., 2., 0., 0., 0., 0., 0., 0.,
          179., 14., 0., 0., 7., 6., 1., 5., 70., 4., 1., 3., 72., 39.,
          2., 8., 21., 23., 3., 2., 7., 2., 1., 5., 30., 8., 0., 0., 20.,
          54., 3., 2., 139., 46., 0., 0., 17., 9., 0., 1., 12., 4., 0.,
          0., 139., 39., 0., 0., 0., 0., 0., 0., 139., 43., 0., 0., 15.,
          5., 3., 4., 73., 25., 1., 0., 139., 34., 0., 0., 27., 6., 0.,
          2., 33., 5., 0., 3., 139., 19., 0., 1., 0., 0., 0., 4., 139.,
          13., 0., 0., 18., 13., 4., 7., 57., 6., 0., 2., 139., 4., 0.,
          2., 26., 4., 0., 12., 39., 2., 0., 17., 139., 2., 0., 1., 0.,
          0., 0., 15., 139., 0., 0., 0., 16., 24., 11., 11., 10., 1., 2.,
          3., 139., 11., 1., 5., 12., 1., 0., 2., 24., 3., 0., 28., 139.,
          0., 0., 0., 0., 0., 0., 30., 139., 0., 0., 0., 4., 7., 5.,
          103., 117., 2., 2., 1., 25., 11., 3., 7., 14., 16., 55., 24.,
          15., 6., 2., 15., 39., 20., 32., 17., 1., 1., 1., 13., 31., 8.,
          9., 3., 29., 14., 7., 117., 111., 2., 2., 10., 117., 48., 7.,
          6., 8., 18., 21., 55., 16., 9., 6., 16., 117., 92., 20., 17.,
          11., 18., 8., 14., 43., 7., 1., 2., 31., 6., 5., 52., 27., 4.,
          7., 31., 76., 116., 84., 8., 10., 24., 11., 16., 7., 44., 117.,
          117., 97., 22., 1., 1., 35., 43., 27., 67., 39., 2., 0., 3.,
          17., 2., 1., 3., 1., 4., 34., 105., 10., 6., 17., 4., 16.,
          117., 82., 33., 6., 8., 61., 49., 82., 117., 8., 2., 92., 19.,
          18., 18., 9., 7., 7., 46., 0., 2., 7., 45., 75., 16., 14., 12.,
          64., 22., 1., 15., 25., 20., 106., 53., 107., 125., 25., 6.,
          3., 13., 25., 13., 3., 33., 62., 67., 17., 7., 1., 1., 31., 0.,
          0., 3., 44., 31., 20., 47., 117., 5., 0., 2., 11., 59., 125.,
          125., 18., 35., 9., 17., 68., 125., 75., 11., 4., 16., 33.,
          57., 21., 5., 8., 15., 47., 3., 2., 2., 6., 5., 4., 26., 125.,
          47., 32., 30., 22., 8., 3., 23., 8., 8., 19., 107., 125., 33.,
          6., 11., 34., 2., 7., 20., 18., 4., 9., 125., 31., 4., 3., 4.,
          9., 4., 7., 51., 14., 30., 53., 26., 18., 2., 2., 7., 18., 16.,
          25., 18., 39., 15., 10., 52., 85., 0., 0., 0., 3., 4., 8.,
          125. ]
      - [ 1., 0., 0., 0., 0., 0., 0., 0., 139., 14., 0., 0., 0., 0., 0.,
          0., 183., 38., 0., 0., 0., 0., 0., 0., 26., 3., 0., 0., 0., 0.,
          0., 0., 1., 0., 0., 0., 0., 0., 69., 8., 121., 7., 0., 0., 0.,
          0., 80., 41., 183., 33., 0., 0., 0., 0., 10., 50., 44., 5., 0.,
          0., 0., 0., 0., 1., 0., 0., 0., 0., 0., 0., 183., 39., 14., 0.,
          0., 0., 0., 0., 183., 102., 115., 2., 0., 0., 0., 0., 107.,
          167., 22., 1., 0., 0., 0., 0., 0., 9., 0., 0., 0., 0., 0., 0.,
          64., 6., 0., 0., 0., 0., 1., 1., 56., 7., 2., 0., 0., 0., 1.,
          1., 18., 10., 3., 0., 0., 0., 0., 0., 0., 2., 0., 6., 64., 0.,
          0., 0., 0., 0., 0., 6., 61., 1., 0., 0., 0., 0., 0., 10., 23.,
          0., 0., 0., 0., 0., 0., 2., 2., 0., 0., 0., 0., 0., 0., 39.,
          184., 0., 0., 0., 0., 0., 15., 98., 184., 0., 0., 0., 0., 0.,
          116., 166., 108., 0., 0., 0., 0., 1., 17., 10., 2., 0., 0., 0.,
          1., 2., 0., 7., 70., 0., 0., 0., 0., 0., 121., 41., 80., 0.,
          0., 0., 0., 7., 184., 49., 10., 0., 0., 0., 0., 29., 41., 1.,
          0., 0., 0., 0., 1., 5., 0., 0., 1., 0., 0., 0., 0., 0., 139.,
          0., 0., 0., 0., 0., 0., 13., 184., 0., 0., 0., 0., 0., 0., 37.,
          25., 0., 0., 0., 0., 0., 0., 4., 0., 0., 0., 0., 0., 0., 0.,
          0., 146., 18., 0., 0., 0., 0., 0., 0., 178., 48., 0., 0., 0.,
          0., 0., 0., 23., 3., 0., 0., 0., 0., 0., 0., 0., 0., 0., 0.,
          0., 0., 61., 8., 124., 9., 0., 0., 0., 0., 72., 44., 178., 39.,
          0., 0., 0., 0., 9., 50., 40., 8., 1., 0., 0., 0., 0., 1., 0.,
          0., 0., 0., 0., 0., 178., 50., 15., 0., 0., 0., 0., 0., 178.,
          115., 111., 1., 0., 0., 0., 0., 104., 172., 17., 1., 0., 0.,
          0., 0., 1., 11., 0., 0., 0., 0., 0., 0., 71., 9., 0., 0., 0.,
          0., 0., 0., 63., 9., 0., 0., 0., 0., 0., 0., 21., 11., 0., 0.,
          0., 0., 0., 1., 2., 2., 0., 7., 67., 0., 0., 0., 0., 0., 0.,
          6., 62., 2., 0., 0., 0., 0., 1., 11., 19., 1., 0., 0., 0., 0.,
          2., 2., 0., 0., 0., 0., 0., 1., 0., 41., 182., 0., 0., 0., 0.,
          0., 14., 106., 182., 0., 0., 0., 0., 0., 114., 172., 101., 0.,
          0., 0., 0., 1., 21., 9., 0., 0., 0., 0., 0., 1., 0., 8., 67.,
          0., 0., 0., 0., 0., 120., 45., 76., 0., 0., 0., 0., 8., 182.,
          52., 9., 0., 0., 0., 0., 32., 44., 1., 0., 0., 0., 0., 0., 5.,
          1., 0., 0., 0., 0., 0., 0., 0., 141., 0., 0., 0., 0., 0., 0.,
          14., 182., 0., 0., 0., 0., 0., 0., 39., 26., 0., 0., 0., 0.,
          0., 0., 3., 0., 0., 0., 11., 2., 0., 0., 0., 153., 20., 0., 0.,
          0., 0., 0., 0., 179., 49., 0., 0., 0., 0., 0., 0., 24., 3., 0.,
          0., 0., 0., 0., 0., 0., 0., 0., 1., 0., 0., 61., 8., 131., 11.,
          0., 0., 0., 0., 76., 42., 179., 40., 0., 0., 0., 0., 9., 52.,
          44., 4., 0., 0., 0., 0., 0., 1., 0., 0., 0., 0., 0., 0., 179.,
          46., 17., 0., 0., 0., 0., 0., 179., 115., 129., 1., 0., 0., 0.,
          0., 75., 178., 20., 0., 0., 0., 0., 0., 0., 7., 0., 0., 0., 0.,
          0., 0., 36., 5., 0., 0., 0., 0., 0., 0., 25., 5., 1., 0., 0.,
          0., 0., 0., 4., 6., 0., 0., 0., 0., 0., 0., 0., 0., 0., 10.,
          75., 0., 0., 0., 0., 0., 0., 10., 65., 0., 0., 0., 0., 0., 0.,
          11., 20., 0., 0., 0., 0., 0., 0., 1., 0., 0., 0., 0., 0., 0.,
          0., 54., 177., 0., 0., 0., 0., 0., 15., 123., 177., 0., 0., 0.,
          0., 0., 90., 177., 112., 0., 0., 0., 0., 1., 4., 7., 1., 0.,
          0., 0., 0., 0., 0., 8., 63., 0., 0., 1., 0., 0., 124., 44.,
          79., 0., 0., 0., 0., 12., 177., 57., 11., 0., 0., 0., 0., 33.,
          12., 1., 0., 0., 0., 0., 0., 1., 0., 0., 0., 0., 2., 12., 0.,
          0., 148., 0., 0., 0., 0., 0., 0., 19., 177., 0., 0., 0., 0.,
          0., 0., 41., 4., 0., 0., 0., 0., 0., 0., 1., 0., 0., 1., 17.,
          35., 4., 0., 0., 161., 21., 0., 11., 34., 3., 0., 0., 173.,
          46., 0., 0., 0., 0., 0., 0., 12., 1., 0., 0., 0., 0., 0., 0.,
          0., 0., 10., 61., 12., 3., 46., 4., 148., 12., 0., 17., 10.,
          1., 65., 45., 173., 36., 0., 0., 0., 0., 6., 51., 26., 2., 0.,
          0., 0., 0., 0., 1., 0., 0., 2., 4., 1., 2., 173., 37., 20., 0.,
          0., 0., 0., 0., 173., 125., 136., 1., 0., 0., 0., 0., 56.,
          173., 13., 0., 0., 0., 0., 0., 0., 6., 0., 0., 0., 0., 0., 0.,
          31., 4., 0., 0., 0., 0., 0., 0., 20., 4., 1., 0., 0., 0., 0.,
          0., 3., 5., 0., 0., 0., 0., 0., 0., 0., 0., 0., 2., 23., 0.,
          0., 0., 0., 0., 0., 2., 14., 0., 0., 0., 0., 0., 0., 3., 2.,
          0., 0., 0., 0., 0., 0., 0., 0., 0., 0., 0., 0., 0., 0., 32.,
          181., 2., 0., 4., 3., 0., 17., 105., 181., 1., 0., 1., 0., 0.,
          141., 177., 66., 0., 0., 0., 0., 1., 22., 7., 0., 0., 0., 0.,
          0., 0., 1., 4., 50., 3., 6., 53., 22., 1., 127., 40., 74., 1.,
          14., 36., 2., 10., 181., 55., 10., 0., 0., 0., 0., 34., 49.,
          2., 0., 0., 0., 0., 0., 3., 4., 2., 1., 7., 19., 13., 3., 3.,
          134., 0., 0., 9., 47., 18., 1., 15., 181., 0., 0., 0., 0., 0.,
          0., 43., 28., 0., 0., 0., 0., 0., 0., 3., 0., 3., 19., 0., 0.,
          0., 0., 0., 0., 3., 10., 0., 0., 0., 0., 0., 2., 2., 1., 0.,
          0., 0., 0., 0., 0., 0., 0., 0., 0., 0., 0., 0., 3., 41., 173.,
          4., 1., 2., 2., 6., 34., 112., 173., 4., 3., 5., 1., 1., 173.,
          157., 28., 0., 0., 0., 0., 3., 17., 4., 0., 0., 0., 0., 0., 0.,
          13., 8., 21., 4., 4., 10., 9., 21., 147., 30., 40., 12., 24.,
          32., 4., 21., 173., 42., 5., 0., 0., 1., 0., 56., 25., 1., 0.,
          0., 0., 0., 0., 2., 11., 17., 13., 23., 2., 2., 9., 1., 173.,
          6., 8., 42., 9., 3., 5., 28., 173., 1., 0., 0., 0., 0., 0.,
          61., 9., 0., 0., 0., 0., 0., 0., 1., 13., 0., 0., 35., 21., 0.,
          0., 10., 144., 0., 0., 0., 0., 0., 0., 144., 93., 0., 0., 8.,
          13., 13., 7., 144., 0., 0., 1., 18., 53., 34., 3., 5., 50., 1.,
          0., 3., 2., 0., 0., 13., 144., 10., 0., 2., 1., 0., 0., 97.,
          103., 4., 6., 103., 20., 1., 0., 36., 4., 3., 12., 91., 23.,
          3., 0., 1., 43., 15., 0., 0., 0., 0., 0., 1., 144., 144., 1.,
          4., 2., 0., 0., 4., 63., 62., 5., 60., 74., 23., 3., 1., 11.,
          13., 7., 23., 14., 16., 10., 3., 5., 9., 0., 0., 0., 12., 7.,
          0., 74., 144., 0., 0., 0., 1., 0., 0., 45., 144., 3., 0., 9.,
          27., 11., 1., 4., 31., 5., 0., 2., 56., 46., 2., 21., 0., 0.,
          0., 0., 0., 0., 7., 166., 1., 0., 0., 1., 1., 0., 72., 91., 4.,
          2., 24., 69., 4., 1., 23., 6., 2., 0., 6., 19., 1., 3., 11.,
          51., 4., 0., 0., 0., 0., 0., 6., 166., 5., 0., 0., 10., 4., 1.,
          86., 71., 2., 1., 8., 145., 15., 2., 28., 19., 12., 2., 4.,
          20., 1., 0., 4., 51., 7., 0., 0., 0., 0., 0., 0., 166., 63.,
          0., 0., 13., 2., 0., 5., 91., 16., 1., 9., 153., 40., 19., 6.,
          7., 12., 2., 4., 15., 13., 60., 14., 17., 9., 0., 0., 0., 0.,
          0., 0., 166., 139., 0., 0., 1., 1., 0., 0., 104., 84., 0., 0.,
          18., 36., 40., 10., 1., 1., 0., 1., 10., 26., 81., 17., 22.,
          1., 0., 0., 0., 0., 0., 5., 157., 0., 0., 0., 1., 0., 0., 113.,
          79., 0., 0., 14., 76., 5., 3., 67., 5., 2., 1., 12., 34., 0.,
          0., 2., 50., 1., 0., 0., 0., 0., 0., 4., 157., 3., 0., 1., 6.,
          0., 0., 50., 100., 1., 0., 31., 140., 12., 5., 16., 8., 10.,
          2., 14., 29., 6., 18., 4., 47., 7., 0., 0., 0., 0., 0., 0.,
          157., 69., 0., 0., 3., 1., 0., 3., 108., 23., 0., 2., 55., 51.,
          48., 6., 1., 1., 0., 1., 9., 41., 120., 9., 15., 8., 0., 0.,
          0., 0., 0., 0., 157., 141., 0., 0., 0., 0., 0., 0., 121., 122.,
          0., 0., 1., 8., 13., 3., 2., 3., 0., 4., 21., 15., 15., 3.,
          27., 11., 3., 0., 1., 1., 3., 30., 30., 17., 38., 10., 0., 1.,
          9., 40., 35., 17., 29., 6., 1., 10., 35., 33., 10., 0., 0., 1.,
          14., 28., 66., 38., 5., 20., 11., 4., 6., 25., 47., 4., 23.,
          37., 101., 72., 24., 43., 17., 7., 137., 69., 51., 19., 2., 3.,
          6., 51., 45., 7., 6., 60., 46., 10., 7., 27., 0., 0., 0., 0.,
          2., 103., 137., 11., 13., 2., 3., 9., 22., 137., 109., 35.,
          137., 24., 12., 11., 4., 16., 43., 113., 16., 10., 19., 80.,
          13., 0., 0., 1., 0., 1., 0., 0., 1., 137., 137., 0., 2., 0.,
          0., 0., 7., 137., 113., 4., 12., 9., 3., 4., 5., 86., 28., 14.,
          0., 1., 2., 17., 29., 7., 2., 0., 5., 9., 47., 48., 1., 1., 1.,
          2., 75., 24., 36., 19., 3., 3., 5., 35., 52., 2., 0., 1., 7.,
          11., 43., 86., 0., 0., 0., 4., 66., 51., 17., 4., 28., 38.,
          107., 143., 4., 0., 0., 1., 144., 76., 35., 10., 1., 1., 3.,
          101., 63., 5., 4., 67., 49., 9., 18., 92., 0., 0., 3., 81.,
          68., 8., 1., 1., 58., 17., 24., 49., 28., 78., 62., 55., 144.,
          73., 26., 9., 1., 1., 12., 103., 45., 27., 56., 127., 34., 1.,
          0., 5., 0., 0., 12., 70., 29., 0., 0., 0., 8., 7., 3., 3., 9.,
          72., 104., 53., 57., 20., 10., 3., 5., 7., 31., 110., 4., 4.,
          26., 36., 18., 13., 1., 1., 0., 1., 7., 23., 5., 3., 3., 0.,
          26., 0., 0., 0., 0., 0., 0., 10., 170., 0., 0., 0., 0., 0., 0.,
          129., 91., 0., 0., 8., 24., 29., 8., 77., 1., 0., 1., 15., 24.,
          80., 23., 1., 66., 1., 0., 0., 0., 0., 0., 5., 170., 5., 0.,
          0., 0., 0., 0., 51., 115., 1., 1., 3., 11., 14., 6., 23., 0.,
          0., 2., 23., 31., 56., 12., 0., 63., 5., 0., 0., 0., 0., 0.,
          0., 170., 43., 0., 0., 0., 0., 0., 2., 129., 10., 1., 17., 29.,
          8., 0., 4., 0., 0., 1., 100., 48., 1., 0., 0., 27., 6., 0., 0.,
          0., 0., 0., 1., 170., 102., 0., 0., 0., 0., 0., 1., 119., 59.,
          1., 9., 59., 16., 1., 2., 0., 1., 1., 52., 90., 10., 0., 0. ]
      - [ 1., 0., 0., 0., 0., 0., 0., 0., 139., 14., 0., 0., 0., 0., 0.,
          0., 183., 38., 0., 0., 0., 0., 0., 0., 26., 3., 0., 0., 0., 0.,
          0., 0., 1., 0., 0., 0., 0., 0., 69., 8., 121., 7., 0., 0., 0.,
          0., 80., 41., 183., 33., 0., 0., 0., 0., 10., 50., 44., 5., 0.,
          0., 0., 0., 0., 1., 0., 0., 0., 0., 0., 0., 183., 39., 14., 0.,
          0., 0., 0., 0., 183., 102., 115., 2., 0., 0., 0., 0., 107.,
          167., 22., 1., 0., 0., 0., 0., 0., 9., 0., 0., 0., 0., 0., 0.,
          64., 6., 0., 0., 0., 0., 1., 1., 56., 7., 2., 0., 0., 0., 1.,
          1., 18., 10., 3., 0., 0., 0., 0., 0., 0., 2., 0., 6., 64., 0.,
          0., 0., 0., 0., 0., 6., 61., 1., 0., 0., 0., 0., 0., 10., 23.,
          0., 0., 0., 0., 0., 0., 2., 2., 0., 0., 0., 0., 0., 0., 39.,
          184., 0., 0., 0., 0., 0., 15., 98., 184., 0., 0., 0., 0., 0.,
          116., 166., 108., 0., 0., 0., 0., 1., 17., 10., 2., 0., 0., 0.,
          1., 2., 0., 7., 70., 0., 0., 0., 0., 0., 121., 41., 80., 0.,
          0., 0., 0., 7., 184., 49., 10., 0., 0., 0., 0., 29., 41., 1.,
          0., 0., 0., 0., 1., 5., 0., 0., 1., 0., 0., 0., 0., 0., 139.,
          0., 0., 0., 0., 0., 0., 13., 184., 0., 0., 0., 0., 0., 0., 37.,
          25., 0., 0., 0., 0., 0., 0., 4., 0., 0., 0., 0., 0., 0., 0.,
          0., 146., 18., 0., 0., 0., 0., 0., 0., 178., 48., 0., 0., 0.,
          0., 0., 0., 23., 3., 0., 0., 0., 0., 0., 0., 0., 0., 0., 0.,
          0., 0., 61., 8., 124., 9., 0., 0., 0., 0., 72., 44., 178., 39.,
          0., 0., 0., 0., 9., 50., 40., 8., 1., 0., 0., 0., 0., 1., 0.,
          0., 0., 0., 0., 0., 178., 50., 15., 0., 0., 0., 0., 0., 178.,
          115., 111., 1., 0., 0., 0., 0., 104., 172., 17., 1., 0., 0.,
          0., 0., 1., 11., 0., 0., 0., 0., 0., 0., 71., 9., 0., 0., 0.,
          0., 0., 0., 63., 9., 0., 0., 0., 0., 0., 0., 21., 11., 0., 0.,
          0., 0., 0., 1., 2., 2., 0., 7., 67., 0., 0., 0., 0., 0., 0.,
          6., 62., 2., 0., 0., 0., 0., 1., 11., 19., 1., 0., 0., 0., 0.,
          2., 2., 0., 0., 0., 0., 0., 1., 0., 41., 182., 0., 0., 0., 0.,
          0., 14., 106., 182., 0., 0., 0., 0., 0., 114., 172., 101., 0.,
          0., 0., 0., 1., 21., 9., 0., 0., 0., 0., 0., 1., 0., 8., 67.,
          0., 0., 0., 0., 0., 120., 45., 76., 0., 0., 0., 0., 8., 182.,
          52., 9., 0., 0., 0., 0., 32., 44., 1., 0., 0., 0., 0., 0., 5.,
          1., 0., 0., 0., 0., 0., 0., 0., 141., 0., 0., 0., 0., 0., 0.,
          14., 182., 0., 0., 0., 0., 0., 0., 39., 26., 0., 0., 0., 0.,
          0., 0., 3., 2., 0., 2., 38., 49., 0., 0., 1., 151., 19., 0.,
          6., 19., 0., 0., 0., 178., 48., 0., 0., 0., 0., 0., 0., 24.,
          3., 0., 0., 0., 0., 0., 0., 0., 0., 3., 46., 14., 2., 53., 5.,
          131., 11., 0., 3., 4., 1., 74., 41., 178., 39., 0., 0., 0., 0.,
          9., 51., 43., 4., 0., 0., 0., 0., 0., 1., 0., 0., 0., 2., 1.,
          1., 178., 42., 17., 0., 0., 0., 0., 0., 178., 113., 128., 1.,
          0., 0., 0., 0., 75., 175., 20., 0., 0., 0., 0., 0., 0., 7., 0.,
          0., 0., 0., 0., 0., 35., 4., 0., 0., 0., 0., 0., 0., 24., 5.,
          1., 0., 0., 0., 0., 0., 4., 5., 0., 0., 0., 0., 0., 0., 0., 0.,
          0., 9., 73., 0., 0., 0., 0., 0., 0., 10., 64., 0., 0., 0., 0.,
          0., 0., 11., 19., 0., 0., 0., 0., 0., 0., 1., 0., 0., 0., 0.,
          0., 0., 0., 53., 177., 0., 0., 0., 0., 0., 15., 122., 177., 0.,
          0., 0., 0., 0., 89., 177., 112., 0., 0., 0., 0., 1., 4., 7.,
          1., 0., 0., 0., 0., 0., 0., 8., 62., 0., 0., 26., 22., 0.,
          121., 44., 80., 0., 0., 6., 3., 12., 177., 57., 11., 0., 0.,
          0., 0., 33., 12., 1., 0., 0., 0., 0., 0., 1., 0., 1., 1., 1.,
          10., 58., 16., 1., 131., 0., 0., 0., 9., 33., 3., 22., 177.,
          0., 0., 0., 0., 0., 0., 42., 4., 0., 0., 0., 0., 0., 0., 0.,
          0., 0., 1., 13., 21., 5., 0., 0., 149., 21., 1., 19., 41., 1.,
          0., 0., 176., 45., 0., 0., 0., 0., 0., 0., 10., 1., 0., 0., 0.,
          0., 0., 0., 0., 0., 9., 51., 12., 4., 41., 2., 149., 14., 1.,
          35., 19., 3., 67., 43., 176., 36., 0., 0., 0., 0., 8., 53.,
          23., 2., 0., 0., 0., 0., 0., 1., 0., 0., 1., 5., 2., 5., 176.,
          30., 22., 0., 0., 1., 1., 2., 176., 121., 138., 1., 0., 0., 0.,
          0., 59., 176., 11., 0., 0., 0., 0., 0., 0., 5., 0., 0., 0., 0.,
          0., 0., 27., 3., 0., 0., 0., 0., 0., 0., 17., 3., 1., 0., 0.,
          0., 0., 0., 2., 4., 0., 0., 0., 0., 0., 0., 0., 0., 0., 4.,
          22., 0., 0., 0., 0., 0., 0., 4., 12., 0., 0., 0., 0., 0., 3.,
          3., 1., 0., 0., 0., 0., 0., 0., 0., 0., 0., 0., 0., 0., 0., 2.,
          44., 175., 3., 1., 2., 1., 4., 35., 109., 175., 7., 4., 3., 0.,
          1., 175., 168., 30., 0., 0., 0., 0., 3., 21., 5., 0., 0., 0.,
          0., 0., 0., 7., 6., 19., 3., 8., 12., 6., 16., 140., 27., 37.,
          6., 27., 30., 2., 27., 175., 42., 4., 0., 0., 1., 0., 66., 31.,
          1., 0., 0., 0., 0., 0., 3., 5., 3., 3., 5., 8., 2., 4., 2.,
          158., 2., 1., 11., 24., 4., 1., 27., 175., 0., 0., 0., 0., 0.,
          0., 65., 11., 0., 0., 0., 0., 0., 0., 2., 0., 3., 20., 0., 0.,
          0., 0., 0., 0., 3., 14., 0., 0., 0., 0., 0., 2., 4., 1., 0.,
          0., 0., 0., 0., 0., 0., 0., 0., 0., 0., 0., 0., 0., 27., 180.,
          7., 2., 2., 1., 1., 31., 94., 180., 12., 6., 6., 0., 1., 180.,
          180., 40., 0., 0., 0., 0., 3., 16., 6., 0., 0., 0., 0., 0., 0.,
          1., 2., 19., 6., 9., 10., 7., 6., 129., 22., 36., 11., 39.,
          37., 2., 19., 180., 42., 6., 0., 2., 2., 0., 54., 24., 1., 0.,
          0., 0., 0., 0., 2., 1., 1., 1., 7., 14., 1., 2., 2., 145., 2.,
          0., 22., 39., 2., 0., 16., 180., 1., 0., 0., 1., 0., 0., 53.,
          9., 0., 0., 0., 0., 0., 0., 1., 67., 4., 1., 21., 60., 0., 0.,
          6., 76., 9., 6., 35., 9., 0., 0., 5., 79., 12., 5., 18., 8.,
          0., 0., 36., 24., 0., 0., 57., 78., 1., 1., 25., 74., 0., 0.,
          9., 71., 5., 1., 41., 53., 13., 14., 69., 64., 19., 5., 22.,
          116., 53., 14., 29., 18., 3., 4., 34., 32., 3., 1., 116., 116.,
          0., 0., 5., 93., 12., 2., 13., 31., 7., 4., 37., 41., 2., 1.,
          4., 37., 76., 92., 60., 64., 3., 1., 56., 60., 12., 64., 116.,
          16., 1., 1., 116., 116., 1., 1., 11., 116., 15., 2., 8., 6.,
          1., 1., 31., 86., 7., 1., 7., 5., 3., 24., 33., 5., 1., 1.,
          116., 116., 2., 17., 16., 19., 1., 1., 95., 80., 0., 0., 13.,
          26., 1., 0., 0., 0., 0., 0., 3., 158., 0., 0., 1., 9., 0., 0.,
          44., 76., 0., 0., 46., 158., 1., 0., 16., 15., 0., 0., 19.,
          51., 1., 1., 34., 40., 0., 0., 0., 0., 0., 0., 7., 158., 2.,
          0., 3., 18., 0., 0., 27., 86., 2., 0., 23., 158., 7., 1., 9.,
          37., 0., 0., 1., 44., 6., 4., 68., 46., 5., 0., 0., 0., 0., 0.,
          38., 158., 35., 1., 4., 16., 0., 0., 62., 59., 22., 3., 28.,
          158., 6., 0., 3., 66., 31., 2., 8., 35., 3., 1., 14., 45., 23.,
          0., 0., 0., 0., 0., 5., 143., 71., 1., 3., 4., 0., 0., 11.,
          31., 26., 5., 51., 142., 7., 0., 1., 39., 52., 4., 13., 25.,
          2., 0., 0., 51., 1., 2., 59., 31., 0., 0., 39., 16., 13., 17.,
          34., 47., 2., 11., 56., 20., 38., 22., 4., 11., 2., 5., 95.,
          2., 4., 1., 72., 116., 2., 2., 8., 17., 2., 5., 114., 26., 1.,
          0., 12., 16., 33., 83., 101., 51., 5., 1., 10., 116., 116.,
          91., 40., 25., 1., 1., 16., 18., 21., 4., 93., 116., 3., 1.,
          1., 11., 0., 0., 34., 44., 4., 3., 35., 14., 2., 4., 27., 116.,
          55., 27., 46., 116., 16., 6., 53., 45., 10., 19., 116., 23.,
          8., 4., 116., 116., 2., 0., 2., 6., 0., 0., 9., 36., 2., 2.,
          28., 22., 1., 0., 8., 49., 9., 7., 29., 32., 1., 0., 54., 98.,
          1., 3., 37., 32., 7., 2., 68., 91., 0., 0., 2., 1., 11., 4.,
          3., 115., 67., 1., 1., 6., 101., 39., 2., 30., 13., 15., 19.,
          3., 115., 80., 0., 0., 7., 17., 5., 6., 88., 104., 0., 0., 1.,
          10., 8., 5., 14., 5., 7., 115., 43., 2., 5., 73., 17., 4., 2.,
          54., 33., 60., 105., 9., 21., 22., 16., 32., 115., 81., 22.,
          5., 27., 64., 2., 9., 32., 25., 47., 7., 19., 7., 13., 99.,
          39., 7., 5., 61., 77., 33., 7., 44., 51., 30., 16., 8., 25.,
          53., 67., 32., 22., 38., 56., 0., 0., 0., 6., 9., 8., 48.,
          115., 3., 2., 1., 2., 5., 34., 47., 44., 1., 4., 4., 3., 4.,
          71., 115., 13., 2., 4., 13., 2., 0., 1., 114., 103., 2., 2.,
          30., 13., 0., 0., 41., 111., 4., 33., 70., 24., 55., 33., 0.,
          1., 10., 107., 88., 0., 1., 2., 8., 11., 1., 117., 83., 1., 2.,
          7., 5., 1., 4., 67., 21., 3., 19., 65., 0., 0., 27., 5., 1.,
          4., 117., 49., 1., 8., 106., 31., 10., 6., 13., 24., 43., 76.,
          17., 81., 21., 27., 59., 64., 31., 10., 97., 113., 5., 2., 6.,
          4., 2., 6., 12., 13., 4., 11., 117., 17., 0., 1., 63., 109.,
          81., 30., 25., 4., 3., 20., 19., 13., 52., 85., 40., 8., 18.,
          101., 94., 36., 8., 3., 6., 2., 9., 59., 0., 1., 1., 43., 115.,
          9., 5., 17., 6., 13., 15., 8., 23., 2., 24., 117., 2., 2., 6.,
          10., 17., 5., 55., 117., 1., 5., 10., 32., 27., 5., 12., 18.,
          20., 96., 22., 3., 25., 43., 3., 2., 37., 73., 13., 10., 3.,
          17., 16., 4., 9., 41., 32., 15., 7., 14., 33., 15., 15., 56.,
          6., 2., 15., 8., 12., 25., 39., 10., 1., 0., 47., 114., 12.,
          12., 114., 24., 2., 4., 9., 43., 38., 77., 19., 38., 15., 10.,
          89., 114., 34., 16., 86., 90., 5., 2., 26., 14., 0., 4., 36.,
          21., 0., 0., 41., 114., 10., 3., 114., 91., 54., 10., 26., 67.,
          12., 19., 21., 46., 103., 49., 114., 61., 6., 13., 100., 5.,
          2., 4., 32., 21., 4., 62., 52., 92., 5., 3., 23., 41., 4., 0.,
          1., 13., 32., 13., 108., 103., 1., 0., 50., 54., 77., 16., 23.,
          34., 1., 6., 69., 50., 6., 4., 4., 1., 1., 29. ]
      - [ 1., 0., 0., 0., 0., 0., 0., 0., 139., 14., 0., 0., 0., 0., 0.,
          0., 183., 38., 0., 0., 0., 0., 0., 0., 26., 3., 0., 0., 0., 0.,
          0., 0., 1., 0., 0., 0., 0., 0., 69., 8., 121., 7., 0., 0., 0.,
          0., 80., 41., 183., 33., 0., 0., 0., 0., 10., 50., 44., 5., 0.,
          0., 0., 0., 0., 1., 0., 0., 0., 0., 0., 0., 183., 39., 14., 0.,
          0., 0., 0., 0., 183., 102., 115., 2., 0., 0., 0., 0., 107.,
          167., 22., 1., 0., 0., 0., 0., 0., 9., 0., 0., 0., 0., 0., 0.,
          64., 6., 0., 0., 0., 0., 1., 1., 56., 7., 2., 0., 0., 0., 1.,
          1., 18., 10., 3., 0., 0., 0., 0., 0., 0., 2., 0., 6., 64., 0.,
          0., 0., 0., 0., 0., 6., 61., 1., 0., 0., 0., 0., 0., 10., 23.,
          0., 0., 0., 0., 0., 0., 2., 2., 0., 0., 0., 0., 0., 0., 39.,
          184., 0., 0., 0., 0., 0., 15., 98., 184., 0., 0., 0., 0., 0.,
          116., 166., 108., 0., 0., 0., 0., 1., 17., 10., 2., 0., 0., 0.,
          1., 2., 0., 7., 70., 0., 0., 0., 0., 0., 121., 41., 80., 0.,
          0., 0., 0., 7., 184., 49., 10., 0., 0., 0., 0., 29., 41., 1.,
          0., 0., 0., 0., 1., 5., 0., 0., 1., 0., 0., 0., 0., 0., 139.,
          0., 0., 0., 0., 0., 0., 13., 184., 0., 0., 0., 0., 0., 0., 37.,
          25., 0., 0., 0., 0., 0., 0., 4., 0., 0., 0., 0., 0., 0., 0.,
          0., 146., 18., 0., 0., 0., 0., 0., 0., 178., 48., 0., 0., 0.,
          0., 0., 0., 23., 3., 0., 0., 0., 0., 0., 0., 0., 0., 0., 0.,
          0., 0., 61., 8., 124., 9., 0., 0., 0., 0., 72., 44., 178., 39.,
          0., 0., 0., 0., 9., 50., 40., 8., 1., 0., 0., 0., 0., 1., 0.,
          0., 0., 0., 0., 0., 178., 50., 15., 0., 0., 0., 0., 0., 178.,
          115., 111., 1., 0., 0., 0., 0., 104., 172., 17., 1., 0., 0.,
          0., 0., 1., 11., 0., 0., 0., 0., 0., 0., 71., 9., 0., 0., 0.,
          0., 0., 0., 63., 9., 0., 0., 0., 0., 0., 0., 21., 11., 0., 0.,
          0., 0., 0., 1., 2., 2., 0., 7., 67., 0., 0., 0., 0., 0., 0.,
          6., 62., 2., 0., 0., 0., 0., 1., 11., 19., 1., 0., 0., 0., 0.,
          2., 2., 0., 0., 0., 0., 0., 1., 0., 41., 182., 0., 0., 0., 0.,
          0., 14., 106., 182., 0., 0., 0., 0., 0., 114., 172., 101., 0.,
          0., 0., 0., 1., 21., 9., 0., 0., 0., 0., 0., 1., 0., 8., 67.,
          0., 0., 0., 0., 0., 120., 45., 76., 0., 0., 0., 0., 8., 182.,
          52., 9., 0., 0., 0., 0., 32., 44., 1., 0., 0., 0., 0., 0., 5.,
          1., 0., 0., 0., 0., 0., 0., 0., 141., 0., 0., 0., 0., 0., 0.,
          14., 182., 0., 0., 0., 0., 0., 0., 39., 26., 0., 0., 0., 0.,
          0., 0., 3., 0., 4., 22., 0., 0., 0., 0., 0., 0., 3., 13., 0.,
          0., 0., 0., 0., 3., 3., 1., 0., 0., 0., 0., 0., 0., 0., 0., 0.,
          0., 0., 0., 0., 3., 44., 176., 4., 1., 2., 1., 4., 34., 107.,
          176., 9., 4., 4., 0., 1., 176., 169., 30., 0., 0., 0., 0., 3.,
          21., 6., 0., 0., 0., 0., 0., 0., 8., 6., 18., 3., 8., 13., 6.,
          17., 138., 26., 36., 7., 28., 33., 3., 26., 176., 42., 4., 0.,
          0., 1., 1., 65., 32., 1., 0., 0., 0., 0., 0., 3., 6., 3., 7.,
          8., 6., 2., 3., 2., 157., 2., 2., 16., 22., 4., 1., 24., 176.,
          0., 0., 0., 0., 0., 0., 64., 12., 0., 0., 0., 0., 0., 0., 2.,
          1., 0., 1., 38., 50., 0., 0., 1., 151., 19., 0., 6., 17., 0.,
          0., 0., 178., 48., 0., 0., 0., 0., 0., 0., 24., 3., 0., 0., 0.,
          0., 0., 0., 0., 0., 3., 42., 19., 3., 52., 4., 131., 11., 0.,
          3., 5., 1., 75., 41., 178., 39., 0., 0., 0., 0., 9., 51., 43.,
          4., 0., 0., 0., 0., 0., 1., 0., 0., 0., 2., 1., 2., 178., 41.,
          17., 0., 0., 0., 0., 0., 178., 113., 128., 1., 0., 0., 0., 0.,
          75., 176., 20., 0., 0., 0., 0., 0., 0., 7., 0., 0., 0., 0., 0.,
          0., 35., 4., 0., 0., 0., 0., 0., 0., 24., 4., 1., 0., 0., 0.,
          0., 0., 4., 5., 0., 0., 0., 0., 0., 0., 0., 0., 0., 9., 73.,
          0., 0., 0., 0., 0., 0., 10., 64., 0., 0., 0., 0., 0., 0., 11.,
          19., 0., 0., 0., 0., 0., 0., 1., 0., 0., 0., 0., 0., 0., 0.,
          53., 177., 0., 0., 0., 0., 0., 15., 123., 177., 0., 0., 0., 0.,
          0., 89., 177., 112., 0., 0., 0., 0., 1., 4., 7., 1., 0., 0.,
          0., 0., 0., 0., 8., 62., 0., 0., 25., 21., 0., 121., 44., 80.,
          0., 0., 5., 3., 13., 177., 57., 11., 0., 0., 0., 0., 33., 12.,
          1., 0., 0., 0., 0., 0., 1., 1., 1., 0., 0., 8., 60., 17., 1.,
          127., 0., 0., 0., 6., 34., 6., 24., 177., 0., 0., 0., 0., 0.,
          0., 43., 4., 0., 0., 0., 0., 0., 0., 0., 3., 1., 0., 3., 14.,
          2., 3., 5., 136., 19., 0., 9., 51., 7., 0., 1., 179., 47., 0.,
          1., 2., 0., 0., 0., 5., 1., 0., 0., 0., 0., 0., 0., 3., 12.,
          13., 21., 10., 3., 31., 5., 133., 18., 2., 52., 41., 7., 61.,
          31., 179., 45., 0., 2., 1., 0., 10., 56., 15., 1., 0., 0., 0.,
          0., 0., 1., 2., 3., 3., 4., 2., 4., 179., 36., 25., 0., 0., 6.,
          5., 8., 179., 103., 163., 1., 0., 0., 0., 0., 58., 179., 8.,
          0., 0., 0., 0., 0., 0., 4., 0., 0., 0., 0., 0., 0., 17., 2.,
          0., 0., 0., 0., 0., 0., 10., 2., 1., 0., 0., 0., 0., 0., 1.,
          2., 0., 0., 0., 0., 0., 0., 0., 0., 0., 2., 20., 0., 0., 0.,
          0., 0., 0., 3., 13., 0., 0., 0., 0., 0., 2., 3., 1., 0., 0.,
          0., 0., 0., 0., 0., 0., 0., 0., 0., 0., 0., 0., 27., 180., 4.,
          1., 2., 1., 2., 31., 92., 180., 13., 7., 5., 0., 1., 180.,
          180., 41., 0., 0., 0., 0., 3., 16., 6., 0., 0., 0., 0., 0., 0.,
          1., 3., 21., 3., 10., 11., 12., 11., 129., 22., 36., 10., 49.,
          35., 2., 20., 180., 42., 6., 0., 2., 2., 0., 54., 23., 1., 0.,
          0., 0., 0., 0., 2., 2., 1., 1., 9., 15., 1., 2., 3., 143., 2.,
          0., 21., 45., 2., 0., 16., 180., 1., 0., 0., 1., 0., 0., 52.,
          9., 0., 0., 0., 0., 0., 0., 1., 25., 10., 1., 2., 29., 19., 8.,
          20., 17., 91., 13., 3., 15., 19., 1., 0., 1., 34., 5., 0., 58.,
          125., 0., 0., 0., 0., 0., 0., 77., 125., 0., 0., 4., 26., 8.,
          7., 66., 17., 2., 9., 7., 76., 54., 32., 91., 28., 2., 3., 90.,
          125., 30., 4., 24., 58., 2., 10., 11., 4., 0., 0., 125., 125.,
          0., 1., 22., 125., 3., 1., 18., 18., 0., 0., 11., 22., 4., 7.,
          67., 125., 37., 19., 125., 45., 3., 2., 7., 26., 28., 68., 29.,
          15., 0., 0., 92., 125., 0., 2., 20., 125., 1., 0., 1., 7., 1.,
          0., 34., 89., 0., 0., 4., 37., 10., 2., 26., 47., 1., 1., 21.,
          37., 7., 5., 39., 52., 0., 0., 16., 38., 0., 0., 126., 14., 2.,
          4., 2., 1., 5., 12., 10., 7., 7., 69., 18., 3., 11., 3., 75.,
          13., 4., 22., 11., 1., 0., 14., 16., 0., 0., 27., 126., 0., 0.,
          6., 126., 3., 0., 11., 21., 1., 0., 16., 15., 18., 20., 112.,
          85., 8., 3., 6., 126., 63., 16., 22., 17., 2., 3., 25., 23.,
          2., 0., 63., 126., 0., 0., 2., 115., 1., 0., 3., 31., 6., 0.,
          28., 16., 3., 2., 17., 88., 57., 49., 53., 79., 7., 1., 24.,
          40., 5., 33., 126., 8., 0., 0., 116., 126., 0., 1., 6., 56.,
          0., 0., 15., 23., 1., 0., 27., 60., 1., 1., 15., 24., 3., 6.,
          34., 29., 0., 0., 52., 90., 0., 3., 35., 0., 0., 0., 109.,
          126., 0., 0., 0., 139., 26., 0., 1., 4., 0., 0., 1., 30., 4.,
          2., 16., 93., 13., 0., 2., 48., 20., 4., 6., 38., 7., 0., 3.,
          4., 3., 1., 1., 129., 19., 0., 0., 139., 14., 0., 6., 10., 0.,
          0., 3., 34., 11., 22., 128., 124., 13., 1., 3., 90., 88., 33.,
          36., 21., 7., 2., 9., 22., 9., 0., 0., 112., 58., 0., 1., 139.,
          57., 1., 1., 11., 3., 0., 0., 37., 10., 2., 16., 125., 116.,
          14., 9., 112., 10., 2., 4., 14., 37., 20., 71., 33., 1., 0.,
          0., 83., 44., 2., 9., 139., 71., 0., 0., 1., 1., 0., 0., 51.,
          19., 0., 1., 55., 41., 1., 2., 41., 4., 3., 5., 22., 22., 3.,
          36., 13., 3., 30., 24., 26., 24., 3., 11., 98., 2., 0., 2.,
          46., 6., 0., 1., 45., 35., 5., 13., 70., 18., 4., 7., 90., 57.,
          2., 1., 41., 16., 1., 3., 1., 1., 0., 0., 126., 69., 0., 0.,
          118., 6., 0., 8., 45., 6., 0., 1., 20., 31., 29., 58., 106.,
          34., 5., 7., 126., 126., 21., 8., 21., 11., 2., 11., 19., 7.,
          0., 2., 126., 64., 0., 0., 115., 1., 0., 1., 21., 19., 2., 10.,
          14., 4., 2., 9., 84., 126., 15., 16., 126., 22., 2., 4., 18.,
          23., 14., 62., 27., 3., 0., 8., 126., 19., 0., 2., 94., 9., 7.,
          6., 7., 7., 2., 9., 5., 3., 6., 6., 55., 48., 2., 2., 100.,
          26., 0., 1., 25., 16., 1., 4., 18., 8., 0., 2., 126., 28., 0.,
          0., 3., 18., 6., 20., 39., 3., 1., 1., 31., 18., 5., 10., 32.,
          38., 9., 16., 3., 0., 0., 0., 38., 133., 6., 5., 0., 0., 0.,
          0., 22., 133., 0., 0., 13., 57., 41., 31., 25., 0., 0., 1.,
          133., 13., 5., 16., 24., 26., 15., 76., 20., 2., 0., 1., 92.,
          133., 17., 23., 0., 0., 0., 0., 27., 133., 3., 0., 32., 125.,
          36., 8., 0., 0., 0., 0., 133., 133., 20., 10., 8., 3., 1., 8.,
          21., 45., 25., 34., 101., 51., 2., 3., 0., 0., 0., 2., 44.,
          108., 3., 0., 13., 133., 13., 0., 0., 0., 0., 0., 40., 133.,
          8., 0., 0., 0., 0., 0., 9., 123., 22., 10., 9., 1., 1., 0., 2.,
          8., 2., 1., 14., 34., 7., 1., 23., 0., 0., 0., 0., 0., 0., 7.,
          158., 0., 0., 4., 12., 0., 0., 87., 56., 1., 0., 79., 154., 1.,
          0., 27., 12., 0., 0., 14., 26., 7., 8., 20., 58., 1., 0., 0.,
          0., 0., 0., 6., 158., 7., 0., 2., 39., 4., 0., 47., 48., 1.,
          0., 16., 158., 21., 1., 15., 26., 2., 1., 2., 17., 6., 3., 15.,
          53., 7., 0., 0., 0., 0., 0., 0., 158., 36., 0., 0., 28., 8.,
          0., 6., 58., 5., 0., 0., 158., 69., 3., 11., 8., 5., 4., 3.,
          32., 15., 4., 10., 30., 4., 0., 0., 0., 0., 0., 0., 158., 38.,
          0., 0., 5., 5., 2., 3., 80., 9., 0., 0., 141., 97., 4., 4., 5.,
          3., 0., 2., 51., 31., 1., 2. ]
      - [ 40., 7., 8., 29., 26., 6., 4., 8., 143., 19., 1., 0., 1., 3.,
          16., 78., 27., 1., 0., 26., 52., 55., 35., 31., 0., 0., 1.,
          30., 135., 90., 2., 0., 53., 30., 33., 4., 1., 1., 1., 3.,
          143., 46., 12., 14., 8., 2., 1., 33., 53., 7., 13., 143., 130.,
          10., 4., 15., 9., 2., 13., 143., 67., 10., 1., 2., 49., 12.,
          5., 1., 0., 0., 3., 37., 143., 123., 107., 39., 2., 0., 1.,
          14., 10., 21., 115., 143., 46., 0., 0., 0., 13., 12., 32., 48.,
          23., 2., 0., 1., 23., 11., 3., 2., 0., 0., 2., 19., 3., 12.,
          33., 18., 8., 5., 3., 6., 0., 1., 27., 53., 11., 1., 0., 0.,
          0., 6., 24., 13., 2., 0., 0., 0., 88., 5., 0., 0., 0., 1., 3.,
          13., 132., 56., 25., 61., 8., 7., 2., 28., 97., 18., 29., 132.,
          11., 12., 4., 12., 113., 15., 12., 81., 72., 0., 0., 10., 83.,
          5., 0., 0., 0., 0., 7., 12., 132., 31., 7., 15., 11., 45., 32.,
          47., 58., 13., 18., 81., 39., 122., 61., 27., 34., 15., 37.,
          132., 28., 1., 2., 4., 50., 15., 0., 0., 0., 0., 2., 8., 132.,
          125., 81., 41., 3., 4., 3., 9., 8., 17., 82., 132., 30., 18.,
          4., 2., 0., 0., 11., 121., 14., 3., 1., 0., 7., 3., 0., 0., 1.,
          1., 7., 24., 8., 19., 29., 22., 8., 2., 2., 5., 0., 1., 20.,
          53., 10., 0., 0., 0., 0., 0., 0., 6., 15., 3., 0., 0., 11.,
          25., 5., 1., 1., 0., 0., 3., 7., 4., 2., 2., 11., 21., 31.,
          18., 0., 0., 0., 1., 6., 41., 26., 1., 0., 0., 0., 6., 7., 6.,
          1., 0., 59., 15., 1., 0., 0., 0., 0., 10., 132., 14., 5., 3.,
          2., 41., 86., 119., 8., 3., 8., 13., 21., 132., 96., 16., 0.,
          0., 0., 5., 8., 120., 29., 0., 81., 23., 4., 0., 0., 0., 0.,
          1., 132., 59., 50., 27., 7., 15., 8., 19., 49., 36., 112., 81.,
          30., 91., 22., 11., 52., 12., 4., 2., 18., 132., 81., 21., 58.,
          20., 2., 2., 0., 0., 0., 0., 132., 53., 3., 4., 3., 35., 20.,
          25., 82., 22., 8., 7., 5., 132., 38., 18., 132., 23., 0., 0.,
          50., 63., 14., 17., 120., 13., 1., 0., 0., 0., 2., 37., 49.,
          25., 24., 17., 8., 1., 0., 2., 4., 23., 10., 4., 65., 97., 0.,
          0., 0., 0., 0., 0., 39., 120., 3., 0., 61., 16., 1., 1., 7.,
          3., 20., 119., 27., 23., 28., 65., 76., 12., 5., 17., 81., 78.,
